%YAML:1.0
---
opencv_ml_rtrees:
   format: 3
   is_classifier: 0
   var_all: 2647
   var_count: 2646
   ord_var_count: 2647
   cat_var_count: 0
   training_params:
      use_surrogates: 0
      max_categories: 2
      regression_accuracy: 0.
      max_depth: 25
      min_sample_count: 1
      cross_validation_folds: 0
      nactive_vars: 0
   global_var_idx: 1
   var_idx: [ 0, 1, 2, 3, 4, 5, 6, 7, 8, 9, 10, 11, 12, 13, 14, 15, 16,
       17, 18, 19, 20, 21, 22, 23, 24, 25, 26, 27, 28, 29, 30, 31, 32,
       33, 34, 35, 36, 37, 38, 39, 40, 41, 42, 43, 44, 45, 46, 47, 48,
       49, 50, 51, 52, 53, 54, 55, 56, 57, 58, 59, 60, 61, 62, 63, 64,
       65, 66, 67, 68, 69, 70, 71, 72, 73, 74, 75, 76, 77, 78, 79, 80,
       81, 82, 83, 84, 85, 86, 87, 88, 89, 90, 91, 92, 93, 94, 95, 96,
       97, 98, 99, 100, 101, 102, 103, 104, 105, 106, 107, 108, 109, 110,
       111, 112, 113, 114, 115, 116, 117, 118, 119, 120, 121, 122, 123,
       124, 125, 126, 127, 128, 129, 130, 131, 132, 133, 134, 135, 136,
       137, 138, 139, 140, 141, 142, 143, 144, 145, 146, 147, 148, 149,
       150, 151, 152, 153, 154, 155, 156, 157, 158, 159, 160, 161, 162,
       163, 164, 165, 166, 167, 168, 169, 170, 171, 172, 173, 174, 175,
       176, 177, 178, 179, 180, 181, 182, 183, 184, 185, 186, 187, 188,
       189, 190, 191, 192, 193, 194, 195, 196, 197, 198, 199, 200, 201,
       202, 203, 204, 205, 206, 207, 208, 209, 210, 211, 212, 213, 214,
       215, 216, 217, 218, 219, 220, 221, 222, 223, 224, 225, 226, 227,
       228, 229, 230, 231, 232, 233, 234, 235, 236, 237, 238, 239, 240,
       241, 242, 243, 244, 245, 246, 247, 248, 249, 250, 251, 252, 253,
       254, 255, 256, 257, 258, 259, 260, 261, 262, 263, 264, 265, 266,
       267, 268, 269, 270, 271, 272, 273, 274, 275, 276, 277, 278, 279,
       280, 281, 282, 283, 284, 285, 286, 287, 288, 289, 290, 291, 292,
       293, 294, 295, 296, 297, 298, 299, 300, 301, 302, 303, 304, 305,
       306, 307, 308, 309, 310, 311, 312, 313, 314, 315, 316, 317, 318,
       319, 320, 321, 322, 323, 324, 325, 326, 327, 328, 329, 330, 331,
       332, 333, 334, 335, 336, 337, 338, 339, 340, 341, 342, 343, 344,
       345, 346, 347, 348, 349, 350, 351, 352, 353, 354, 355, 356, 357,
       358, 359, 360, 361, 362, 363, 364, 365, 366, 367, 368, 369, 370,
       371, 372, 373, 374, 375, 376, 377, 378, 379, 380, 381, 382, 383,
       384, 385, 386, 387, 388, 389, 390, 391, 392, 393, 394, 395, 396,
       397, 398, 399, 400, 401, 402, 403, 404, 405, 406, 407, 408, 409,
       410, 411, 412, 413, 414, 415, 416, 417, 418, 419, 420, 421, 422,
       423, 424, 425, 426, 427, 428, 429, 430, 431, 432, 433, 434, 435,
       436, 437, 438, 439, 440, 441, 442, 443, 444, 445, 446, 447, 448,
       449, 450, 451, 452, 453, 454, 455, 456, 457, 458, 459, 460, 461,
       462, 463, 464, 465, 466, 467, 468, 469, 470, 471, 472, 473, 474,
       475, 476, 477, 478, 479, 480, 481, 482, 483, 484, 485, 486, 487,
       488, 489, 490, 491, 492, 493, 494, 495, 496, 497, 498, 499, 500,
       501, 502, 503, 504, 505, 506, 507, 508, 509, 510, 511, 512, 513,
       514, 515, 516, 517, 518, 519, 520, 521, 522, 523, 524, 525, 526,
       527, 528, 529, 530, 531, 532, 533, 534, 535, 536, 537, 538, 539,
       540, 541, 542, 543, 544, 545, 546, 547, 548, 549, 550, 551, 552,
       553, 554, 555, 556, 557, 558, 559, 560, 561, 562, 563, 564, 565,
       566, 567, 568, 569, 570, 571, 572, 573, 574, 575, 576, 577, 578,
       579, 580, 581, 582, 583, 584, 585, 586, 587, 588, 589, 590, 591,
       592, 593, 594, 595, 596, 597, 598, 599, 600, 601, 602, 603, 604,
       605, 606, 607, 608, 609, 610, 611, 612, 613, 614, 615, 616, 617,
       618, 619, 620, 621, 622, 623, 624, 625, 626, 627, 628, 629, 630,
       631, 632, 633, 634, 635, 636, 637, 638, 639, 640, 641, 642, 643,
       644, 645, 646, 647, 648, 649, 650, 651, 652, 653, 654, 655, 656,
       657, 658, 659, 660, 661, 662, 663, 664, 665, 666, 667, 668, 669,
       670, 671, 672, 673, 674, 675, 676, 677, 678, 679, 680, 681, 682,
       683, 684, 685, 686, 687, 688, 689, 690, 691, 692, 693, 694, 695,
       696, 697, 698, 699, 700, 701, 702, 703, 704, 705, 706, 707, 708,
       709, 710, 711, 712, 713, 714, 715, 716, 717, 718, 719, 720, 721,
       722, 723, 724, 725, 726, 727, 728, 729, 730, 731, 732, 733, 734,
       735, 736, 737, 738, 739, 740, 741, 742, 743, 744, 745, 746, 747,
       748, 749, 750, 751, 752, 753, 754, 755, 756, 757, 758, 759, 760,
       761, 762, 763, 764, 765, 766, 767, 768, 769, 770, 771, 772, 773,
       774, 775, 776, 777, 778, 779, 780, 781, 782, 783, 784, 785, 786,
       787, 788, 789, 790, 791, 792, 793, 794, 795, 796, 797, 798, 799,
       800, 801, 802, 803, 804, 805, 806, 807, 808, 809, 810, 811, 812,
       813, 814, 815, 816, 817, 818, 819, 820, 821, 822, 823, 824, 825,
       826, 827, 828, 829, 830, 831, 832, 833, 834, 835, 836, 837, 838,
       839, 840, 841, 842, 843, 844, 845, 846, 847, 848, 849, 850, 851,
       852, 853, 854, 855, 856, 857, 858, 859, 860, 861, 862, 863, 864,
       865, 866, 867, 868, 869, 870, 871, 872, 873, 874, 875, 876, 877,
       878, 879, 880, 881, 882, 883, 884, 885, 886, 887, 888, 889, 890,
       891, 892, 893, 894, 895, 896, 897, 898, 899, 900, 901, 902, 903,
       904, 905, 906, 907, 908, 909, 910, 911, 912, 913, 914, 915, 916,
       917, 918, 919, 920, 921, 922, 923, 924, 925, 926, 927, 928, 929,
       930, 931, 932, 933, 934, 935, 936, 937, 938, 939, 940, 941, 942,
       943, 944, 945, 946, 947, 948, 949, 950, 951, 952, 953, 954, 955,
       956, 957, 958, 959, 960, 961, 962, 963, 964, 965, 966, 967, 968,
       969, 970, 971, 972, 973, 974, 975, 976, 977, 978, 979, 980, 981,
       982, 983, 984, 985, 986, 987, 988, 989, 990, 991, 992, 993, 994,
       995, 996, 997, 998, 999, 1000, 1001, 1002, 1003, 1004, 1005, 1006,
       1007, 1008, 1009, 1010, 1011, 1012, 1013, 1014, 1015, 1016, 1017,
       1018, 1019, 1020, 1021, 1022, 1023, 1024, 1025, 1026, 1027, 1028,
       1029, 1030, 1031, 1032, 1033, 1034, 1035, 1036, 1037, 1038, 1039,
       1040, 1041, 1042, 1043, 1044, 1045, 1046, 1047, 1048, 1049, 1050,
       1051, 1052, 1053, 1054, 1055, 1056, 1057, 1058, 1059, 1060, 1061,
       1062, 1063, 1064, 1065, 1066, 1067, 1068, 1069, 1070, 1071, 1072,
       1073, 1074, 1075, 1076, 1077, 1078, 1079, 1080, 1081, 1082, 1083,
       1084, 1085, 1086, 1087, 1088, 1089, 1090, 1091, 1092, 1093, 1094,
       1095, 1096, 1097, 1098, 1099, 1100, 1101, 1102, 1103, 1104, 1105,
       1106, 1107, 1108, 1109, 1110, 1111, 1112, 1113, 1114, 1115, 1116,
       1117, 1118, 1119, 1120, 1121, 1122, 1123, 1124, 1125, 1126, 1127,
       1128, 1129, 1130, 1131, 1132, 1133, 1134, 1135, 1136, 1137, 1138,
       1139, 1140, 1141, 1142, 1143, 1144, 1145, 1146, 1147, 1148, 1149,
       1150, 1151, 1152, 1153, 1154, 1155, 1156, 1157, 1158, 1159, 1160,
       1161, 1162, 1163, 1164, 1165, 1166, 1167, 1168, 1169, 1170, 1171,
       1172, 1173, 1174, 1175, 1176, 1177, 1178, 1179, 1180, 1181, 1182,
       1183, 1184, 1185, 1186, 1187, 1188, 1189, 1190, 1191, 1192, 1193,
       1194, 1195, 1196, 1197, 1198, 1199, 1200, 1201, 1202, 1203, 1204,
       1205, 1206, 1207, 1208, 1209, 1210, 1211, 1212, 1213, 1214, 1215,
       1216, 1217, 1218, 1219, 1220, 1221, 1222, 1223, 1224, 1225, 1226,
       1227, 1228, 1229, 1230, 1231, 1232, 1233, 1234, 1235, 1236, 1237,
       1238, 1239, 1240, 1241, 1242, 1243, 1244, 1245, 1246, 1247, 1248,
       1249, 1250, 1251, 1252, 1253, 1254, 1255, 1256, 1257, 1258, 1259,
       1260, 1261, 1262, 1263, 1264, 1265, 1266, 1267, 1268, 1269, 1270,
       1271, 1272, 1273, 1274, 1275, 1276, 1277, 1278, 1279, 1280, 1281,
       1282, 1283, 1284, 1285, 1286, 1287, 1288, 1289, 1290, 1291, 1292,
       1293, 1294, 1295, 1296, 1297, 1298, 1299, 1300, 1301, 1302, 1303,
       1304, 1305, 1306, 1307, 1308, 1309, 1310, 1311, 1312, 1313, 1314,
       1315, 1316, 1317, 1318, 1319, 1320, 1321, 1322, 1323, 1324, 1325,
       1326, 1327, 1328, 1329, 1330, 1331, 1332, 1333, 1334, 1335, 1336,
       1337, 1338, 1339, 1340, 1341, 1342, 1343, 1344, 1345, 1346, 1347,
       1348, 1349, 1350, 1351, 1352, 1353, 1354, 1355, 1356, 1357, 1358,
       1359, 1360, 1361, 1362, 1363, 1364, 1365, 1366, 1367, 1368, 1369,
       1370, 1371, 1372, 1373, 1374, 1375, 1376, 1377, 1378, 1379, 1380,
       1381, 1382, 1383, 1384, 1385, 1386, 1387, 1388, 1389, 1390, 1391,
       1392, 1393, 1394, 1395, 1396, 1397, 1398, 1399, 1400, 1401, 1402,
       1403, 1404, 1405, 1406, 1407, 1408, 1409, 1410, 1411, 1412, 1413,
       1414, 1415, 1416, 1417, 1418, 1419, 1420, 1421, 1422, 1423, 1424,
       1425, 1426, 1427, 1428, 1429, 1430, 1431, 1432, 1433, 1434, 1435,
       1436, 1437, 1438, 1439, 1440, 1441, 1442, 1443, 1444, 1445, 1446,
       1447, 1448, 1449, 1450, 1451, 1452, 1453, 1454, 1455, 1456, 1457,
       1458, 1459, 1460, 1461, 1462, 1463, 1464, 1465, 1466, 1467, 1468,
       1469, 1470, 1471, 1472, 1473, 1474, 1475, 1476, 1477, 1478, 1479,
       1480, 1481, 1482, 1483, 1484, 1485, 1486, 1487, 1488, 1489, 1490,
       1491, 1492, 1493, 1494, 1495, 1496, 1497, 1498, 1499, 1500, 1501,
       1502, 1503, 1504, 1505, 1506, 1507, 1508, 1509, 1510, 1511, 1512,
       1513, 1514, 1515, 1516, 1517, 1518, 1519, 1520, 1521, 1522, 1523,
       1524, 1525, 1526, 1527, 1528, 1529, 1530, 1531, 1532, 1533, 1534,
       1535, 1536, 1537, 1538, 1539, 1540, 1541, 1542, 1543, 1544, 1545,
       1546, 1547, 1548, 1549, 1550, 1551, 1552, 1553, 1554, 1555, 1556,
       1557, 1558, 1559, 1560, 1561, 1562, 1563, 1564, 1565, 1566, 1567,
       1568, 1569, 1570, 1571, 1572, 1573, 1574, 1575, 1576, 1577, 1578,
       1579, 1580, 1581, 1582, 1583, 1584, 1585, 1586, 1587, 1588, 1589,
       1590, 1591, 1592, 1593, 1594, 1595, 1596, 1597, 1598, 1599, 1600,
       1601, 1602, 1603, 1604, 1605, 1606, 1607, 1608, 1609, 1610, 1611,
       1612, 1613, 1614, 1615, 1616, 1617, 1618, 1619, 1620, 1621, 1622,
       1623, 1624, 1625, 1626, 1627, 1628, 1629, 1630, 1631, 1632, 1633,
       1634, 1635, 1636, 1637, 1638, 1639, 1640, 1641, 1642, 1643, 1644,
       1645, 1646, 1647, 1648, 1649, 1650, 1651, 1652, 1653, 1654, 1655,
       1656, 1657, 1658, 1659, 1660, 1661, 1662, 1663, 1664, 1665, 1666,
       1667, 1668, 1669, 1670, 1671, 1672, 1673, 1674, 1675, 1676, 1677,
       1678, 1679, 1680, 1681, 1682, 1683, 1684, 1685, 1686, 1687, 1688,
       1689, 1690, 1691, 1692, 1693, 1694, 1695, 1696, 1697, 1698, 1699,
       1700, 1701, 1702, 1703, 1704, 1705, 1706, 1707, 1708, 1709, 1710,
       1711, 1712, 1713, 1714, 1715, 1716, 1717, 1718, 1719, 1720, 1721,
       1722, 1723, 1724, 1725, 1726, 1727, 1728, 1729, 1730, 1731, 1732,
       1733, 1734, 1735, 1736, 1737, 1738, 1739, 1740, 1741, 1742, 1743,
       1744, 1745, 1746, 1747, 1748, 1749, 1750, 1751, 1752, 1753, 1754,
       1755, 1756, 1757, 1758, 1759, 1760, 1761, 1762, 1763, 1764, 1765,
       1766, 1767, 1768, 1769, 1770, 1771, 1772, 1773, 1774, 1775, 1776,
       1777, 1778, 1779, 1780, 1781, 1782, 1783, 1784, 1785, 1786, 1787,
       1788, 1789, 1790, 1791, 1792, 1793, 1794, 1795, 1796, 1797, 1798,
       1799, 1800, 1801, 1802, 1803, 1804, 1805, 1806, 1807, 1808, 1809,
       1810, 1811, 1812, 1813, 1814, 1815, 1816, 1817, 1818, 1819, 1820,
       1821, 1822, 1823, 1824, 1825, 1826, 1827, 1828, 1829, 1830, 1831,
       1832, 1833, 1834, 1835, 1836, 1837, 1838, 1839, 1840, 1841, 1842,
       1843, 1844, 1845, 1846, 1847, 1848, 1849, 1850, 1851, 1852, 1853,
       1854, 1855, 1856, 1857, 1858, 1859, 1860, 1861, 1862, 1863, 1864,
       1865, 1866, 1867, 1868, 1869, 1870, 1871, 1872, 1873, 1874, 1875,
       1876, 1877, 1878, 1879, 1880, 1881, 1882, 1883, 1884, 1885, 1886,
       1887, 1888, 1889, 1890, 1891, 1892, 1893, 1894, 1895, 1896, 1897,
       1898, 1899, 1900, 1901, 1902, 1903, 1904, 1905, 1906, 1907, 1908,
       1909, 1910, 1911, 1912, 1913, 1914, 1915, 1916, 1917, 1918, 1919,
       1920, 1921, 1922, 1923, 1924, 1925, 1926, 1927, 1928, 1929, 1930,
       1931, 1932, 1933, 1934, 1935, 1936, 1937, 1938, 1939, 1940, 1941,
       1942, 1943, 1944, 1945, 1946, 1947, 1948, 1949, 1950, 1951, 1952,
       1953, 1954, 1955, 1956, 1957, 1958, 1959, 1960, 1961, 1962, 1963,
       1964, 1965, 1966, 1967, 1968, 1969, 1970, 1971, 1972, 1973, 1974,
       1975, 1976, 1977, 1978, 1979, 1980, 1981, 1982, 1983, 1984, 1985,
       1986, 1987, 1988, 1989, 1990, 1991, 1992, 1993, 1994, 1995, 1996,
       1997, 1998, 1999, 2000, 2001, 2002, 2003, 2004, 2005, 2006, 2007,
       2008, 2009, 2010, 2011, 2012, 2013, 2014, 2015, 2016, 2017, 2018,
       2019, 2020, 2021, 2022, 2023, 2024, 2025, 2026, 2027, 2028, 2029,
       2030, 2031, 2032, 2033, 2034, 2035, 2036, 2037, 2038, 2039, 2040,
       2041, 2042, 2043, 2044, 2045, 2046, 2047, 2048, 2049, 2050, 2051,
       2052, 2053, 2054, 2055, 2056, 2057, 2058, 2059, 2060, 2061, 2062,
       2063, 2064, 2065, 2066, 2067, 2068, 2069, 2070, 2071, 2072, 2073,
       2074, 2075, 2076, 2077, 2078, 2079, 2080, 2081, 2082, 2083, 2084,
       2085, 2086, 2087, 2088, 2089, 2090, 2091, 2092, 2093, 2094, 2095,
       2096, 2097, 2098, 2099, 2100, 2101, 2102, 2103, 2104, 2105, 2106,
       2107, 2108, 2109, 2110, 2111, 2112, 2113, 2114, 2115, 2116, 2117,
       2118, 2119, 2120, 2121, 2122, 2123, 2124, 2125, 2126, 2127, 2128,
       2129, 2130, 2131, 2132, 2133, 2134, 2135, 2136, 2137, 2138, 2139,
       2140, 2141, 2142, 2143, 2144, 2145, 2146, 2147, 2148, 2149, 2150,
       2151, 2152, 2153, 2154, 2155, 2156, 2157, 2158, 2159, 2160, 2161,
       2162, 2163, 2164, 2165, 2166, 2167, 2168, 2169, 2170, 2171, 2172,
       2173, 2174, 2175, 2176, 2177, 2178, 2179, 2180, 2181, 2182, 2183,
       2184, 2185, 2186, 2187, 2188, 2189, 2190, 2191, 2192, 2193, 2194,
       2195, 2196, 2197, 2198, 2199, 2200, 2201, 2202, 2203, 2204, 2205,
       2206, 2207, 2208, 2209, 2210, 2211, 2212, 2213, 2214, 2215, 2216,
       2217, 2218, 2219, 2220, 2221, 2222, 2223, 2224, 2225, 2226, 2227,
       2228, 2229, 2230, 2231, 2232, 2233, 2234, 2235, 2236, 2237, 2238,
       2239, 2240, 2241, 2242, 2243, 2244, 2245, 2246, 2247, 2248, 2249,
       2250, 2251, 2252, 2253, 2254, 2255, 2256, 2257, 2258, 2259, 2260,
       2261, 2262, 2263, 2264, 2265, 2266, 2267, 2268, 2269, 2270, 2271,
       2272, 2273, 2274, 2275, 2276, 2277, 2278, 2279, 2280, 2281, 2282,
       2283, 2284, 2285, 2286, 2287, 2288, 2289, 2290, 2291, 2292, 2293,
       2294, 2295, 2296, 2297, 2298, 2299, 2300, 2301, 2302, 2303, 2304,
       2305, 2306, 2307, 2308, 2309, 2310, 2311, 2312, 2313, 2314, 2315,
       2316, 2317, 2318, 2319, 2320, 2321, 2322, 2323, 2324, 2325, 2326,
       2327, 2328, 2329, 2330, 2331, 2332, 2333, 2334, 2335, 2336, 2337,
       2338, 2339, 2340, 2341, 2342, 2343, 2344, 2345, 2346, 2347, 2348,
       2349, 2350, 2351, 2352, 2353, 2354, 2355, 2356, 2357, 2358, 2359,
       2360, 2361, 2362, 2363, 2364, 2365, 2366, 2367, 2368, 2369, 2370,
       2371, 2372, 2373, 2374, 2375, 2376, 2377, 2378, 2379, 2380, 2381,
       2382, 2383, 2384, 2385, 2386, 2387, 2388, 2389, 2390, 2391, 2392,
       2393, 2394, 2395, 2396, 2397, 2398, 2399, 2400, 2401, 2402, 2403,
       2404, 2405, 2406, 2407, 2408, 2409, 2410, 2411, 2412, 2413, 2414,
       2415, 2416, 2417, 2418, 2419, 2420, 2421, 2422, 2423, 2424, 2425,
       2426, 2427, 2428, 2429, 2430, 2431, 2432, 2433, 2434, 2435, 2436,
       2437, 2438, 2439, 2440, 2441, 2442, 2443, 2444, 2445, 2446, 2447,
       2448, 2449, 2450, 2451, 2452, 2453, 2454, 2455, 2456, 2457, 2458,
       2459, 2460, 2461, 2462, 2463, 2464, 2465, 2466, 2467, 2468, 2469,
       2470, 2471, 2472, 2473, 2474, 2475, 2476, 2477, 2478, 2479, 2480,
       2481, 2482, 2483, 2484, 2485, 2486, 2487, 2488, 2489, 2490, 2491,
       2492, 2493, 2494, 2495, 2496, 2497, 2498, 2499, 2500, 2501, 2502,
       2503, 2504, 2505, 2506, 2507, 2508, 2509, 2510, 2511, 2512, 2513,
       2514, 2515, 2516, 2517, 2518, 2519, 2520, 2521, 2522, 2523, 2524,
       2525, 2526, 2527, 2528, 2529, 2530, 2531, 2532, 2533, 2534, 2535,
       2536, 2537, 2538, 2539, 2540, 2541, 2542, 2543, 2544, 2545, 2546,
       2547, 2548, 2549, 2550, 2551, 2552, 2553, 2554, 2555, 2556, 2557,
       2558, 2559, 2560, 2561, 2562, 2563, 2564, 2565, 2566, 2567, 2568,
       2569, 2570, 2571, 2572, 2573, 2574, 2575, 2576, 2577, 2578, 2579,
       2580, 2581, 2582, 2583, 2584, 2585, 2586, 2587, 2588, 2589, 2590,
       2591, 2592, 2593, 2594, 2595, 2596, 2597, 2598, 2599, 2600, 2601,
       2602, 2603, 2604, 2605, 2606, 2607, 2608, 2609, 2610, 2611, 2612,
       2613, 2614, 2615, 2616, 2617, 2618, 2619, 2620, 2621, 2622, 2623,
       2624, 2625, 2626, 2627, 2628, 2629, 2630, 2631, 2632, 2633, 2634,
       2635, 2636, 2637, 2638, 2639, 2640, 2641, 2642, 2643, 2644, 2645 ]
   var_type: [ 0, 0, 0, 0, 0, 0, 0, 0, 0, 0, 0, 0, 0, 0, 0, 0, 0, 0, 0,
       0, 0, 0, 0, 0, 0, 0, 0, 0, 0, 0, 0, 0, 0, 0, 0, 0, 0, 0, 0, 0, 0,
       0, 0, 0, 0, 0, 0, 0, 0, 0, 0, 0, 0, 0, 0, 0, 0, 0, 0, 0, 0, 0, 0,
       0, 0, 0, 0, 0, 0, 0, 0, 0, 0, 0, 0, 0, 0, 0, 0, 0, 0, 0, 0, 0, 0,
       0, 0, 0, 0, 0, 0, 0, 0, 0, 0, 0, 0, 0, 0, 0, 0, 0, 0, 0, 0, 0, 0,
       0, 0, 0, 0, 0, 0, 0, 0, 0, 0, 0, 0, 0, 0, 0, 0, 0, 0, 0, 0, 0, 0,
       0, 0, 0, 0, 0, 0, 0, 0, 0, 0, 0, 0, 0, 0, 0, 0, 0, 0, 0, 0, 0, 0,
       0, 0, 0, 0, 0, 0, 0, 0, 0, 0, 0, 0, 0, 0, 0, 0, 0, 0, 0, 0, 0, 0,
       0, 0, 0, 0, 0, 0, 0, 0, 0, 0, 0, 0, 0, 0, 0, 0, 0, 0, 0, 0, 0, 0,
       0, 0, 0, 0, 0, 0, 0, 0, 0, 0, 0, 0, 0, 0, 0, 0, 0, 0, 0, 0, 0, 0,
       0, 0, 0, 0, 0, 0, 0, 0, 0, 0, 0, 0, 0, 0, 0, 0, 0, 0, 0, 0, 0, 0,
       0, 0, 0, 0, 0, 0, 0, 0, 0, 0, 0, 0, 0, 0, 0, 0, 0, 0, 0, 0, 0, 0,
       0, 0, 0, 0, 0, 0, 0, 0, 0, 0, 0, 0, 0, 0, 0, 0, 0, 0, 0, 0, 0, 0,
       0, 0, 0, 0, 0, 0, 0, 0, 0, 0, 0, 0, 0, 0, 0, 0, 0, 0, 0, 0, 0, 0,
       0, 0, 0, 0, 0, 0, 0, 0, 0, 0, 0, 0, 0, 0, 0, 0, 0, 0, 0, 0, 0, 0,
       0, 0, 0, 0, 0, 0, 0, 0, 0, 0, 0, 0, 0, 0, 0, 0, 0, 0, 0, 0, 0, 0,
       0, 0, 0, 0, 0, 0, 0, 0, 0, 0, 0, 0, 0, 0, 0, 0, 0, 0, 0, 0, 0, 0,
       0, 0, 0, 0, 0, 0, 0, 0, 0, 0, 0, 0, 0, 0, 0, 0, 0, 0, 0, 0, 0, 0,
       0, 0, 0, 0, 0, 0, 0, 0, 0, 0, 0, 0, 0, 0, 0, 0, 0, 0, 0, 0, 0, 0,
       0, 0, 0, 0, 0, 0, 0, 0, 0, 0, 0, 0, 0, 0, 0, 0, 0, 0, 0, 0, 0, 0,
       0, 0, 0, 0, 0, 0, 0, 0, 0, 0, 0, 0, 0, 0, 0, 0, 0, 0, 0, 0, 0, 0,
       0, 0, 0, 0, 0, 0, 0, 0, 0, 0, 0, 0, 0, 0, 0, 0, 0, 0, 0, 0, 0, 0,
       0, 0, 0, 0, 0, 0, 0, 0, 0, 0, 0, 0, 0, 0, 0, 0, 0, 0, 0, 0, 0, 0,
       0, 0, 0, 0, 0, 0, 0, 0, 0, 0, 0, 0, 0, 0, 0, 0, 0, 0, 0, 0, 0, 0,
       0, 0, 0, 0, 0, 0, 0, 0, 0, 0, 0, 0, 0, 0, 0, 0, 0, 0, 0, 0, 0, 0,
       0, 0, 0, 0, 0, 0, 0, 0, 0, 0, 0, 0, 0, 0, 0, 0, 0, 0, 0, 0, 0, 0,
       0, 0, 0, 0, 0, 0, 0, 0, 0, 0, 0, 0, 0, 0, 0, 0, 0, 0, 0, 0, 0, 0,
       0, 0, 0, 0, 0, 0, 0, 0, 0, 0, 0, 0, 0, 0, 0, 0, 0, 0, 0, 0, 0, 0,
       0, 0, 0, 0, 0, 0, 0, 0, 0, 0, 0, 0, 0, 0, 0, 0, 0, 0, 0, 0, 0, 0,
       0, 0, 0, 0, 0, 0, 0, 0, 0, 0, 0, 0, 0, 0, 0, 0, 0, 0, 0, 0, 0, 0,
       0, 0, 0, 0, 0, 0, 0, 0, 0, 0, 0, 0, 0, 0, 0, 0, 0, 0, 0, 0, 0, 0,
       0, 0, 0, 0, 0, 0, 0, 0, 0, 0, 0, 0, 0, 0, 0, 0, 0, 0, 0, 0, 0, 0,
       0, 0, 0, 0, 0, 0, 0, 0, 0, 0, 0, 0, 0, 0, 0, 0, 0, 0, 0, 0, 0, 0,
       0, 0, 0, 0, 0, 0, 0, 0, 0, 0, 0, 0, 0, 0, 0, 0, 0, 0, 0, 0, 0, 0,
       0, 0, 0, 0, 0, 0, 0, 0, 0, 0, 0, 0, 0, 0, 0, 0, 0, 0, 0, 0, 0, 0,
       0, 0, 0, 0, 0, 0, 0, 0, 0, 0, 0, 0, 0, 0, 0, 0, 0, 0, 0, 0, 0, 0,
       0, 0, 0, 0, 0, 0, 0, 0, 0, 0, 0, 0, 0, 0, 0, 0, 0, 0, 0, 0, 0, 0,
       0, 0, 0, 0, 0, 0, 0, 0, 0, 0, 0, 0, 0, 0, 0, 0, 0, 0, 0, 0, 0, 0,
       0, 0, 0, 0, 0, 0, 0, 0, 0, 0, 0, 0, 0, 0, 0, 0, 0, 0, 0, 0, 0, 0,
       0, 0, 0, 0, 0, 0, 0, 0, 0, 0, 0, 0, 0, 0, 0, 0, 0, 0, 0, 0, 0, 0,
       0, 0, 0, 0, 0, 0, 0, 0, 0, 0, 0, 0, 0, 0, 0, 0, 0, 0, 0, 0, 0, 0,
       0, 0, 0, 0, 0, 0, 0, 0, 0, 0, 0, 0, 0, 0, 0, 0, 0, 0, 0, 0, 0, 0,
       0, 0, 0, 0, 0, 0, 0, 0, 0, 0, 0, 0, 0, 0, 0, 0, 0, 0, 0, 0, 0, 0,
       0, 0, 0, 0, 0, 0, 0, 0, 0, 0, 0, 0, 0, 0, 0, 0, 0, 0, 0, 0, 0, 0,
       0, 0, 0, 0, 0, 0, 0, 0, 0, 0, 0, 0, 0, 0, 0, 0, 0, 0, 0, 0, 0, 0,
       0, 0, 0, 0, 0, 0, 0, 0, 0, 0, 0, 0, 0, 0, 0, 0, 0, 0, 0, 0, 0, 0,
       0, 0, 0, 0, 0, 0, 0, 0, 0, 0, 0, 0, 0, 0, 0, 0, 0, 0, 0, 0, 0, 0,
       0, 0, 0, 0, 0, 0, 0, 0, 0, 0, 0, 0, 0, 0, 0, 0, 0, 0, 0, 0, 0, 0,
       0, 0, 0, 0, 0, 0, 0, 0, 0, 0, 0, 0, 0, 0, 0, 0, 0, 0, 0, 0, 0, 0,
       0, 0, 0, 0, 0, 0, 0, 0, 0, 0, 0, 0, 0, 0, 0, 0, 0, 0, 0, 0, 0, 0,
       0, 0, 0, 0, 0, 0, 0, 0, 0, 0, 0, 0, 0, 0, 0, 0, 0, 0, 0, 0, 0, 0,
       0, 0, 0, 0, 0, 0, 0, 0, 0, 0, 0, 0, 0, 0, 0, 0, 0, 0, 0, 0, 0, 0,
       0, 0, 0, 0, 0, 0, 0, 0, 0, 0, 0, 0, 0, 0, 0, 0, 0, 0, 0, 0, 0, 0,
       0, 0, 0, 0, 0, 0, 0, 0, 0, 0, 0, 0, 0, 0, 0, 0, 0, 0, 0, 0, 0, 0,
       0, 0, 0, 0, 0, 0, 0, 0, 0, 0, 0, 0, 0, 0, 0, 0, 0, 0, 0, 0, 0, 0,
       0, 0, 0, 0, 0, 0, 0, 0, 0, 0, 0, 0, 0, 0, 0, 0, 0, 0, 0, 0, 0, 0,
       0, 0, 0, 0, 0, 0, 0, 0, 0, 0, 0, 0, 0, 0, 0, 0, 0, 0, 0, 0, 0, 0,
       0, 0, 0, 0, 0, 0, 0, 0, 0, 0, 0, 0, 0, 0, 0, 0, 0, 0, 0, 0, 0, 0,
       0, 0, 0, 0, 0, 0, 0, 0, 0, 0, 0, 0, 0, 0, 0, 0, 0, 0, 0, 0, 0, 0,
       0, 0, 0, 0, 0, 0, 0, 0, 0, 0, 0, 0, 0, 0, 0, 0, 0, 0, 0, 0, 0, 0,
       0, 0, 0, 0, 0, 0, 0, 0, 0, 0, 0, 0, 0, 0, 0, 0, 0, 0, 0, 0, 0, 0,
       0, 0, 0, 0, 0, 0, 0, 0, 0, 0, 0, 0, 0, 0, 0, 0, 0, 0, 0, 0, 0, 0,
       0, 0, 0, 0, 0, 0, 0, 0, 0, 0, 0, 0, 0, 0, 0, 0, 0, 0, 0, 0, 0, 0,
       0, 0, 0, 0, 0, 0, 0, 0, 0, 0, 0, 0, 0, 0, 0, 0, 0, 0, 0, 0, 0, 0,
       0, 0, 0, 0, 0, 0, 0, 0, 0, 0, 0, 0, 0, 0, 0, 0, 0, 0, 0, 0, 0, 0,
       0, 0, 0, 0, 0, 0, 0, 0, 0, 0, 0, 0, 0, 0, 0, 0, 0, 0, 0, 0, 0, 0,
       0, 0, 0, 0, 0, 0, 0, 0, 0, 0, 0, 0, 0, 0, 0, 0, 0, 0, 0, 0, 0, 0,
       0, 0, 0, 0, 0, 0, 0, 0, 0, 0, 0, 0, 0, 0, 0, 0, 0, 0, 0, 0, 0, 0,
       0, 0, 0, 0, 0, 0, 0, 0, 0, 0, 0, 0, 0, 0, 0, 0, 0, 0, 0, 0, 0, 0,
       0, 0, 0, 0, 0, 0, 0, 0, 0, 0, 0, 0, 0, 0, 0, 0, 0, 0, 0, 0, 0, 0,
       0, 0, 0, 0, 0, 0, 0, 0, 0, 0, 0, 0, 0, 0, 0, 0, 0, 0, 0, 0, 0, 0,
       0, 0, 0, 0, 0, 0, 0, 0, 0, 0, 0, 0, 0, 0, 0, 0, 0, 0, 0, 0, 0, 0,
       0, 0, 0, 0, 0, 0, 0, 0, 0, 0, 0, 0, 0, 0, 0, 0, 0, 0, 0, 0, 0, 0,
       0, 0, 0, 0, 0, 0, 0, 0, 0, 0, 0, 0, 0, 0, 0, 0, 0, 0, 0, 0, 0, 0,
       0, 0, 0, 0, 0, 0, 0, 0, 0, 0, 0, 0, 0, 0, 0, 0, 0, 0, 0, 0, 0, 0,
       0, 0, 0, 0, 0, 0, 0, 0, 0, 0, 0, 0, 0, 0, 0, 0, 0, 0, 0, 0, 0, 0,
       0, 0, 0, 0, 0, 0, 0, 0, 0, 0, 0, 0, 0, 0, 0, 0, 0, 0, 0, 0, 0, 0,
       0, 0, 0, 0, 0, 0, 0, 0, 0, 0, 0, 0, 0, 0, 0, 0, 0, 0, 0, 0, 0, 0,
       0, 0, 0, 0, 0, 0, 0, 0, 0, 0, 0, 0, 0, 0, 0, 0, 0, 0, 0, 0, 0, 0,
       0, 0, 0, 0, 0, 0, 0, 0, 0, 0, 0, 0, 0, 0, 0, 0, 0, 0, 0, 0, 0, 0,
       0, 0, 0, 0, 0, 0, 0, 0, 0, 0, 0, 0, 0, 0, 0, 0, 0, 0, 0, 0, 0, 0,
       0, 0, 0, 0, 0, 0, 0, 0, 0, 0, 0, 0, 0, 0, 0, 0, 0, 0, 0, 0, 0, 0,
       0, 0, 0, 0, 0, 0, 0, 0, 0, 0, 0, 0, 0, 0, 0, 0, 0, 0, 0, 0, 0, 0,
       0, 0, 0, 0, 0, 0, 0, 0, 0, 0, 0, 0, 0, 0, 0, 0, 0, 0, 0, 0, 0, 0,
       0, 0, 0, 0, 0, 0, 0, 0, 0, 0, 0, 0, 0, 0, 0, 0, 0, 0, 0, 0, 0, 0,
       0, 0, 0, 0, 0, 0, 0, 0, 0, 0, 0, 0, 0, 0, 0, 0, 0, 0, 0, 0, 0, 0,
       0, 0, 0, 0, 0, 0, 0, 0, 0, 0, 0, 0, 0, 0, 0, 0, 0, 0, 0, 0, 0, 0,
       0, 0, 0, 0, 0, 0, 0, 0, 0, 0, 0, 0, 0, 0, 0, 0, 0, 0, 0, 0, 0, 0,
       0, 0, 0, 0, 0, 0, 0, 0, 0, 0, 0, 0, 0, 0, 0, 0, 0, 0, 0, 0, 0, 0,
       0, 0, 0, 0, 0, 0, 0, 0, 0, 0, 0, 0, 0, 0, 0, 0, 0, 0, 0, 0, 0, 0,
       0, 0, 0, 0, 0, 0, 0, 0, 0, 0, 0, 0, 0, 0, 0, 0, 0, 0, 0, 0, 0, 0,
       0, 0, 0, 0, 0, 0, 0, 0, 0, 0, 0, 0, 0, 0, 0, 0, 0, 0, 0, 0, 0, 0,
       0, 0, 0, 0, 0, 0, 0, 0, 0, 0, 0, 0, 0, 0, 0, 0, 0, 0, 0, 0, 0, 0,
       0, 0, 0, 0, 0, 0, 0, 0, 0, 0, 0, 0, 0, 0, 0, 0, 0, 0, 0, 0, 0, 0,
       0, 0, 0, 0, 0, 0, 0, 0, 0, 0, 0, 0, 0, 0, 0, 0, 0, 0, 0, 0, 0, 0,
       0, 0, 0, 0, 0, 0, 0, 0, 0, 0, 0, 0, 0, 0, 0, 0, 0, 0, 0, 0, 0, 0,
       0, 0, 0, 0, 0, 0, 0, 0, 0, 0, 0, 0, 0, 0, 0, 0, 0, 0, 0, 0, 0, 0,
       0, 0, 0, 0, 0, 0, 0, 0, 0, 0, 0, 0, 0, 0, 0, 0, 0, 0, 0, 0, 0, 0,
       0, 0, 0, 0, 0, 0, 0, 0, 0, 0, 0, 0, 0, 0, 0, 0, 0, 0, 0, 0, 0, 0,
       0, 0, 0, 0, 0, 0, 0, 0, 0, 0, 0, 0, 0, 0, 0, 0, 0, 0, 0, 0, 0, 0,
       0, 0, 0, 0, 0, 0, 0, 0, 0, 0, 0, 0, 0, 0, 0, 0, 0, 0, 0, 0, 0, 0,
       0, 0, 0, 0, 0, 0, 0, 0, 0, 0, 0, 0, 0, 0, 0, 0, 0, 0, 0, 0, 0, 0,
       0, 0, 0, 0, 0, 0, 0, 0, 0, 0, 0, 0, 0, 0, 0, 0, 0, 0, 0, 0, 0, 0,
       0, 0, 0, 0, 0, 0, 0, 0, 0, 0, 0, 0, 0, 0, 0, 0, 0, 0, 0, 0, 0, 0,
       0, 0, 0, 0, 0, 0, 0, 0, 0, 0, 0, 0, 0, 0, 0, 0, 0, 0, 0, 0, 0, 0,
       0, 0, 0, 0, 0, 0, 0, 0, 0, 0, 0, 0, 0, 0, 0, 0, 0, 0, 0, 0, 0, 0,
       0, 0, 0, 0, 0, 0, 0, 0, 0, 0, 0, 0, 0, 0, 0, 0, 0, 0, 0, 0, 0, 0,
       0, 0, 0, 0, 0, 0, 0, 0, 0, 0, 0, 0, 0, 0, 0, 0, 0, 0, 0, 0, 0, 0,
       0, 0, 0, 0, 0, 0, 0, 0, 0, 0, 0, 0, 0, 0, 0, 0, 0, 0, 0, 0, 0, 0,
       0, 0, 0, 0, 0, 0, 0, 0, 0, 0, 0, 0, 0, 0, 0, 0, 0, 0, 0, 0, 0, 0,
       0, 0, 0, 0, 0, 0, 0, 0, 0, 0, 0, 0, 0, 0, 0, 0, 0, 0, 0, 0, 0, 0,
       0, 0, 0, 0, 0, 0, 0, 0, 0, 0, 0, 0, 0, 0, 0, 0, 0, 0, 0, 0, 0, 0,
       0, 0, 0, 0, 0, 0, 0, 0, 0, 0, 0, 0, 0, 0, 0, 0, 0, 0, 0, 0, 0, 0,
       0, 0, 0, 0, 0, 0, 0, 0, 0, 0, 0, 0, 0, 0, 0, 0, 0, 0, 0, 0, 0, 0,
       0, 0, 0, 0, 0, 0, 0, 0, 0, 0, 0, 0, 0, 0, 0, 0, 0, 0, 0, 0, 0, 0,
       0, 0, 0, 0, 0, 0, 0, 0, 0, 0, 0, 0, 0, 0, 0, 0, 0, 0, 0, 0, 0, 0,
       0, 0, 0, 0, 0, 0, 0, 0, 0, 0, 0, 0, 0, 0, 0, 0, 0, 0, 0, 0, 0, 0,
       0, 0, 0, 0, 0, 0, 0, 0, 0, 0, 0, 0, 0, 0, 0, 0, 0, 0, 0, 0, 0, 0,
       0, 0, 0, 0, 0, 0, 0, 0, 0, 0, 0, 0, 0, 0, 0, 0, 0, 0, 0, 0, 0, 0,
       0, 0, 0, 0, 0, 0, 0, 0, 0, 0, 0, 0, 0, 0, 0, 0, 0, 0, 0, 0, 0, 0,
       0, 0, 0, 0, 0, 0, 0, 0, 0, 0 ]
   cat_ofs: [ 0, 0, 0, 0, 0, 0, 0, 0, 0, 0, 0, 0, 0, 0, 0, 0, 0, 0, 0, 0,
       0, 0, 0, 0, 0, 0, 0, 0, 0, 0, 0, 0, 0, 0, 0, 0, 0, 0, 0, 0, 0, 0,
       0, 0, 0, 0, 0, 0, 0, 0, 0, 0, 0, 0, 0, 0, 0, 0, 0, 0, 0, 0, 0, 0,
       0, 0, 0, 0, 0, 0, 0, 0, 0, 0, 0, 0, 0, 0, 0, 0, 0, 0, 0, 0, 0, 0,
       0, 0, 0, 0, 0, 0, 0, 0, 0, 0, 0, 0, 0, 0, 0, 0, 0, 0, 0, 0, 0, 0,
       0, 0, 0, 0, 0, 0, 0, 0, 0, 0, 0, 0, 0, 0, 0, 0, 0, 0, 0, 0, 0, 0,
       0, 0, 0, 0, 0, 0, 0, 0, 0, 0, 0, 0, 0, 0, 0, 0, 0, 0, 0, 0, 0, 0,
       0, 0, 0, 0, 0, 0, 0, 0, 0, 0, 0, 0, 0, 0, 0, 0, 0, 0, 0, 0, 0, 0,
       0, 0, 0, 0, 0, 0, 0, 0, 0, 0, 0, 0, 0, 0, 0, 0, 0, 0, 0, 0, 0, 0,
       0, 0, 0, 0, 0, 0, 0, 0, 0, 0, 0, 0, 0, 0, 0, 0, 0, 0, 0, 0, 0, 0,
       0, 0, 0, 0, 0, 0, 0, 0, 0, 0, 0, 0, 0, 0, 0, 0, 0, 0, 0, 0, 0, 0,
       0, 0, 0, 0, 0, 0, 0, 0, 0, 0, 0, 0, 0, 0, 0, 0, 0, 0, 0, 0, 0, 0,
       0, 0, 0, 0, 0, 0, 0, 0, 0, 0, 0, 0, 0, 0, 0, 0, 0, 0, 0, 0, 0, 0,
       0, 0, 0, 0, 0, 0, 0, 0, 0, 0, 0, 0, 0, 0, 0, 0, 0, 0, 0, 0, 0, 0,
       0, 0, 0, 0, 0, 0, 0, 0, 0, 0, 0, 0, 0, 0, 0, 0, 0, 0, 0, 0, 0, 0,
       0, 0, 0, 0, 0, 0, 0, 0, 0, 0, 0, 0, 0, 0, 0, 0, 0, 0, 0, 0, 0, 0,
       0, 0, 0, 0, 0, 0, 0, 0, 0, 0, 0, 0, 0, 0, 0, 0, 0, 0, 0, 0, 0, 0,
       0, 0, 0, 0, 0, 0, 0, 0, 0, 0, 0, 0, 0, 0, 0, 0, 0, 0, 0, 0, 0, 0,
       0, 0, 0, 0, 0, 0, 0, 0, 0, 0, 0, 0, 0, 0, 0, 0, 0, 0, 0, 0, 0, 0,
       0, 0, 0, 0, 0, 0, 0, 0, 0, 0, 0, 0, 0, 0, 0, 0, 0, 0, 0, 0, 0, 0,
       0, 0, 0, 0, 0, 0, 0, 0, 0, 0, 0, 0, 0, 0, 0, 0, 0, 0, 0, 0, 0, 0,
       0, 0, 0, 0, 0, 0, 0, 0, 0, 0, 0, 0, 0, 0, 0, 0, 0, 0, 0, 0, 0, 0,
       0, 0, 0, 0, 0, 0, 0, 0, 0, 0, 0, 0, 0, 0, 0, 0, 0, 0, 0, 0, 0, 0,
       0, 0, 0, 0, 0, 0, 0, 0, 0, 0, 0, 0, 0, 0, 0, 0, 0, 0, 0, 0, 0, 0,
       0, 0, 0, 0, 0, 0, 0, 0, 0, 0, 0, 0, 0, 0, 0, 0, 0, 0, 0, 0, 0, 0,
       0, 0, 0, 0, 0, 0, 0, 0, 0, 0, 0, 0, 0, 0, 0, 0, 0, 0, 0, 0, 0, 0,
       0, 0, 0, 0, 0, 0, 0, 0, 0, 0, 0, 0, 0, 0, 0, 0, 0, 0, 0, 0, 0, 0,
       0, 0, 0, 0, 0, 0, 0, 0, 0, 0, 0, 0, 0, 0, 0, 0, 0, 0, 0, 0, 0, 0,
       0, 0, 0, 0, 0, 0, 0, 0, 0, 0, 0, 0, 0, 0, 0, 0, 0, 0, 0, 0, 0, 0,
       0, 0, 0, 0, 0, 0, 0, 0, 0, 0, 0, 0, 0, 0, 0, 0, 0, 0, 0, 0, 0, 0,
       0, 0, 0, 0, 0, 0, 0, 0, 0, 0, 0, 0, 0, 0, 0, 0, 0, 0, 0, 0, 0, 0,
       0, 0, 0, 0, 0, 0, 0, 0, 0, 0, 0, 0, 0, 0, 0, 0, 0, 0, 0, 0, 0, 0,
       0, 0, 0, 0, 0, 0, 0, 0, 0, 0, 0, 0, 0, 0, 0, 0, 0, 0, 0, 0, 0, 0,
       0, 0, 0, 0, 0, 0, 0, 0, 0, 0, 0, 0, 0, 0, 0, 0, 0, 0, 0, 0, 0, 0,
       0, 0, 0, 0, 0, 0, 0, 0, 0, 0, 0, 0, 0, 0, 0, 0, 0, 0, 0, 0, 0, 0,
       0, 0, 0, 0, 0, 0, 0, 0, 0, 0, 0, 0, 0, 0, 0, 0, 0, 0, 0, 0, 0, 0,
       0, 0, 0, 0, 0, 0, 0, 0, 0, 0, 0, 0, 0, 0, 0, 0, 0, 0, 0, 0, 0, 0,
       0, 0, 0, 0, 0, 0, 0, 0, 0, 0, 0, 0, 0, 0, 0, 0, 0, 0, 0, 0, 0, 0,
       0, 0, 0, 0, 0, 0, 0, 0, 0, 0, 0, 0, 0, 0, 0, 0, 0, 0, 0, 0, 0, 0,
       0, 0, 0, 0, 0, 0, 0, 0, 0, 0, 0, 0, 0, 0, 0, 0, 0, 0, 0, 0, 0, 0,
       0, 0, 0, 0, 0, 0, 0, 0, 0, 0, 0, 0, 0, 0, 0, 0, 0, 0, 0, 0, 0, 0,
       0, 0, 0, 0, 0, 0, 0, 0, 0, 0, 0, 0, 0, 0, 0, 0, 0, 0, 0, 0, 0, 0,
       0, 0, 0, 0, 0, 0, 0, 0, 0, 0, 0, 0, 0, 0, 0, 0, 0, 0, 0, 0, 0, 0,
       0, 0, 0, 0, 0, 0, 0, 0, 0, 0, 0, 0, 0, 0, 0, 0, 0, 0, 0, 0, 0, 0,
       0, 0, 0, 0, 0, 0, 0, 0, 0, 0, 0, 0, 0, 0, 0, 0, 0, 0, 0, 0, 0, 0,
       0, 0, 0, 0, 0, 0, 0, 0, 0, 0, 0, 0, 0, 0, 0, 0, 0, 0, 0, 0, 0, 0,
       0, 0, 0, 0, 0, 0, 0, 0, 0, 0, 0, 0, 0, 0, 0, 0, 0, 0, 0, 0, 0, 0,
       0, 0, 0, 0, 0, 0, 0, 0, 0, 0, 0, 0, 0, 0, 0, 0, 0, 0, 0, 0, 0, 0,
       0, 0, 0, 0, 0, 0, 0, 0, 0, 0, 0, 0, 0, 0, 0, 0, 0, 0, 0, 0, 0, 0,
       0, 0, 0, 0, 0, 0, 0, 0, 0, 0, 0, 0, 0, 0, 0, 0, 0, 0, 0, 0, 0, 0,
       0, 0, 0, 0, 0, 0, 0, 0, 0, 0, 0, 0, 0, 0, 0, 0, 0, 0, 0, 0, 0, 0,
       0, 0, 0, 0, 0, 0, 0, 0, 0, 0, 0, 0, 0, 0, 0, 0, 0, 0, 0, 0, 0, 0,
       0, 0, 0, 0, 0, 0, 0, 0, 0, 0, 0, 0, 0, 0, 0, 0, 0, 0, 0, 0, 0, 0,
       0, 0, 0, 0, 0, 0, 0, 0, 0, 0, 0, 0, 0, 0, 0, 0, 0, 0, 0, 0, 0, 0,
       0, 0, 0, 0, 0, 0, 0, 0, 0, 0, 0, 0, 0, 0, 0, 0, 0, 0, 0, 0, 0, 0,
       0, 0, 0, 0, 0, 0, 0, 0, 0, 0, 0, 0, 0, 0, 0, 0, 0, 0, 0, 0, 0, 0,
       0, 0, 0, 0, 0, 0, 0, 0, 0, 0, 0, 0, 0, 0, 0, 0, 0, 0, 0, 0, 0, 0,
       0, 0, 0, 0, 0, 0, 0, 0, 0, 0, 0, 0, 0, 0, 0, 0, 0, 0, 0, 0, 0, 0,
       0, 0, 0, 0, 0, 0, 0, 0, 0, 0, 0, 0, 0, 0, 0, 0, 0, 0, 0, 0, 0, 0,
       0, 0, 0, 0, 0, 0, 0, 0, 0, 0, 0, 0, 0, 0, 0, 0, 0, 0, 0, 0, 0, 0,
       0, 0, 0, 0, 0, 0, 0, 0, 0, 0, 0, 0, 0, 0, 0, 0, 0, 0, 0, 0, 0, 0,
       0, 0, 0, 0, 0, 0, 0, 0, 0, 0, 0, 0, 0, 0, 0, 0, 0, 0, 0, 0, 0, 0,
       0, 0, 0, 0, 0, 0, 0, 0, 0, 0, 0, 0, 0, 0, 0, 0, 0, 0, 0, 0, 0, 0,
       0, 0, 0, 0, 0, 0, 0, 0, 0, 0, 0, 0, 0, 0, 0, 0, 0, 0, 0, 0, 0, 0,
       0, 0, 0, 0, 0, 0, 0, 0, 0, 0, 0, 0, 0, 0, 0, 0, 0, 0, 0, 0, 0, 0,
       0, 0, 0, 0, 0, 0, 0, 0, 0, 0, 0, 0, 0, 0, 0, 0, 0, 0, 0, 0, 0, 0,
       0, 0, 0, 0, 0, 0, 0, 0, 0, 0, 0, 0, 0, 0, 0, 0, 0, 0, 0, 0, 0, 0,
       0, 0, 0, 0, 0, 0, 0, 0, 0, 0, 0, 0, 0, 0, 0, 0, 0, 0, 0, 0, 0, 0,
       0, 0, 0, 0, 0, 0, 0, 0, 0, 0, 0, 0, 0, 0, 0, 0, 0, 0, 0, 0, 0, 0,
       0, 0, 0, 0, 0, 0, 0, 0, 0, 0, 0, 0, 0, 0, 0, 0, 0, 0, 0, 0, 0, 0,
       0, 0, 0, 0, 0, 0, 0, 0, 0, 0, 0, 0, 0, 0, 0, 0, 0, 0, 0, 0, 0, 0,
       0, 0, 0, 0, 0, 0, 0, 0, 0, 0, 0, 0, 0, 0, 0, 0, 0, 0, 0, 0, 0, 0,
       0, 0, 0, 0, 0, 0, 0, 0, 0, 0, 0, 0, 0, 0, 0, 0, 0, 0, 0, 0, 0, 0,
       0, 0, 0, 0, 0, 0, 0, 0, 0, 0, 0, 0, 0, 0, 0, 0, 0, 0, 0, 0, 0, 0,
       0, 0, 0, 0, 0, 0, 0, 0, 0, 0, 0, 0, 0, 0, 0, 0, 0, 0, 0, 0, 0, 0,
       0, 0, 0, 0, 0, 0, 0, 0, 0, 0, 0, 0, 0, 0, 0, 0, 0, 0, 0, 0, 0, 0,
       0, 0, 0, 0, 0, 0, 0, 0, 0, 0, 0, 0, 0, 0, 0, 0, 0, 0, 0, 0, 0, 0,
       0, 0, 0, 0, 0, 0, 0, 0, 0, 0, 0, 0, 0, 0, 0, 0, 0, 0, 0, 0, 0, 0,
       0, 0, 0, 0, 0, 0, 0, 0, 0, 0, 0, 0, 0, 0, 0, 0, 0, 0, 0, 0, 0, 0,
       0, 0, 0, 0, 0, 0, 0, 0, 0, 0, 0, 0, 0, 0, 0, 0, 0, 0, 0, 0, 0, 0,
       0, 0, 0, 0, 0, 0, 0, 0, 0, 0, 0, 0, 0, 0, 0, 0, 0, 0, 0, 0, 0, 0,
       0, 0, 0, 0, 0, 0, 0, 0, 0, 0, 0, 0, 0, 0, 0, 0, 0, 0, 0, 0, 0, 0,
       0, 0, 0, 0, 0, 0, 0, 0, 0, 0, 0, 0, 0, 0, 0, 0, 0, 0, 0, 0, 0, 0,
       0, 0, 0, 0, 0, 0, 0, 0, 0, 0, 0, 0, 0, 0, 0, 0, 0, 0, 0, 0, 0, 0,
       0, 0, 0, 0, 0, 0, 0, 0, 0, 0, 0, 0, 0, 0, 0, 0, 0, 0, 0, 0, 0, 0,
       0, 0, 0, 0, 0, 0, 0, 0, 0, 0, 0, 0, 0, 0, 0, 0, 0, 0, 0, 0, 0, 0,
       0, 0, 0, 0, 0, 0, 0, 0, 0, 0, 0, 0, 0, 0, 0, 0, 0, 0, 0, 0, 0, 0,
       0, 0, 0, 0, 0, 0, 0, 0, 0, 0, 0, 0, 0, 0, 0, 0, 0, 0, 0, 0, 0, 0,
       0, 0, 0, 0, 0, 0, 0, 0, 0, 0, 0, 0, 0, 0, 0, 0, 0, 0, 0, 0, 0, 0,
       0, 0, 0, 0, 0, 0, 0, 0, 0, 0, 0, 0, 0, 0, 0, 0, 0, 0, 0, 0, 0, 0,
       0, 0, 0, 0, 0, 0, 0, 0, 0, 0, 0, 0, 0, 0, 0, 0, 0, 0, 0, 0, 0, 0,
       0, 0, 0, 0, 0, 0, 0, 0, 0, 0, 0, 0, 0, 0, 0, 0, 0, 0, 0, 0, 0, 0,
       0, 0, 0, 0, 0, 0, 0, 0, 0, 0, 0, 0, 0, 0, 0, 0, 0, 0, 0, 0, 0, 0,
       0, 0, 0, 0, 0, 0, 0, 0, 0, 0, 0, 0, 0, 0, 0, 0, 0, 0, 0, 0, 0, 0,
       0, 0, 0, 0, 0, 0, 0, 0, 0, 0, 0, 0, 0, 0, 0, 0, 0, 0, 0, 0, 0, 0,
       0, 0, 0, 0, 0, 0, 0, 0, 0, 0, 0, 0, 0, 0, 0, 0, 0, 0, 0, 0, 0, 0,
       0, 0, 0, 0, 0, 0, 0, 0, 0, 0, 0, 0, 0, 0, 0, 0, 0, 0, 0, 0, 0, 0,
       0, 0, 0, 0, 0, 0, 0, 0, 0, 0, 0, 0, 0, 0, 0, 0, 0, 0, 0, 0, 0, 0,
       0, 0, 0, 0, 0, 0, 0, 0, 0, 0, 0, 0, 0, 0, 0, 0, 0, 0, 0, 0, 0, 0,
       0, 0, 0, 0, 0, 0, 0, 0, 0, 0, 0, 0, 0, 0, 0, 0, 0, 0, 0, 0, 0, 0,
       0, 0, 0, 0, 0, 0, 0, 0, 0, 0, 0, 0, 0, 0, 0, 0, 0, 0, 0, 0, 0, 0,
       0, 0, 0, 0, 0, 0, 0, 0, 0, 0, 0, 0, 0, 0, 0, 0, 0, 0, 0, 0, 0, 0,
       0, 0, 0, 0, 0, 0, 0, 0, 0, 0, 0, 0, 0, 0, 0, 0, 0, 0, 0, 0, 0, 0,
       0, 0, 0, 0, 0, 0, 0, 0, 0, 0, 0, 0, 0, 0, 0, 0, 0, 0, 0, 0, 0, 0,
       0, 0, 0, 0, 0, 0, 0, 0, 0, 0, 0, 0, 0, 0, 0, 0, 0, 0, 0, 0, 0, 0,
       0, 0, 0, 0, 0, 0, 0, 0, 0, 0, 0, 0, 0, 0, 0, 0, 0, 0, 0, 0, 0, 0,
       0, 0, 0, 0, 0, 0, 0, 0, 0, 0, 0, 0, 0, 0, 0, 0, 0, 0, 0, 0, 0, 0,
       0, 0, 0, 0, 0, 0, 0, 0, 0, 0, 0, 0, 0, 0, 0, 0, 0, 0, 0, 0, 0, 0,
       0, 0, 0, 0, 0, 0, 0, 0, 0, 0, 0, 0, 0, 0, 0, 0, 0, 0, 0, 0, 0, 0,
       0, 0, 0, 0, 0, 0, 0, 0, 0, 0, 0, 0, 0, 0, 0, 0, 0, 0, 0, 0, 0, 0,
       0, 0, 0, 0, 0, 0, 0, 0, 0, 0, 0, 0, 0, 0, 0, 0, 0, 0, 0, 0, 0, 0,
       0, 0, 0, 0, 0, 0, 0, 0, 0, 0, 0, 0, 0, 0, 0, 0, 0, 0, 0, 0, 0, 0,
       0, 0, 0, 0, 0, 0, 0, 0, 0, 0, 0, 0, 0, 0, 0, 0, 0, 0, 0, 0, 0, 0,
       0, 0, 0, 0, 0, 0, 0, 0, 0, 0, 0, 0, 0, 0, 0, 0, 0, 0, 0, 0, 0, 0,
       0, 0, 0, 0, 0, 0, 0, 0, 0, 0, 0, 0, 0, 0, 0, 0, 0, 0, 0, 0, 0, 0,
       0, 0, 0, 0, 0, 0, 0, 0, 0, 0, 0, 0, 0, 0, 0, 0, 0, 0, 0, 0, 0, 0,
       0, 0, 0, 0, 0, 0, 0, 0, 0, 0, 0, 0, 0, 0, 0, 0, 0, 0, 0, 0, 0, 0,
       0, 0, 0, 0, 0, 0, 0, 0, 0, 0, 0, 0, 0, 0, 0, 0, 0, 0, 0, 0, 0, 0,
       0, 0, 0, 0, 0, 0, 0, 0, 0, 0, 0, 0, 0, 0, 0, 0, 0, 0, 0, 0, 0, 0,
       0, 0, 0, 0, 0, 0, 0, 0, 0, 0, 0, 0, 0, 0, 0, 0, 0, 0, 0, 0, 0, 0,
       0, 0, 0, 0, 0, 0, 0, 0, 0, 0, 0, 0, 0, 0, 0, 0, 0, 0, 0, 0, 0, 0,
       0, 0, 0, 0, 0, 0, 0, 0, 0, 0, 0, 0, 0, 0, 0, 0, 0, 0, 0, 0, 0, 0,
       0, 0, 0, 0, 0, 0, 0, 0, 0, 0, 0, 0, 0, 0, 0, 0, 0, 0, 0, 0, 0, 0,
       0, 0, 0, 0, 0, 0, 0, 0, 0, 0, 0, 0, 0, 0, 0, 0, 0, 0, 0, 0, 0, 0,
       0, 0, 0, 0, 0, 0, 0, 0, 0, 0, 0, 0, 0, 0, 0, 0, 0, 0, 0, 0, 0, 0,
       0, 0, 0, 0, 0, 0, 0, 0, 0, 0, 0, 0, 0, 0, 0, 0, 0, 0, 0, 0, 0, 0,
       0, 0, 0, 0, 0, 0, 0, 0, 0, 0, 0, 0, 0, 0, 0, 0, 0, 0, 0, 0, 0, 0,
       0, 0, 0, 0, 0, 0, 0, 0, 0, 0, 0, 0, 0, 0, 0, 0, 0, 0, 0, 0, 0, 0,
       0, 0, 0, 0, 0, 0, 0, 0, 0, 0, 0, 0, 0, 0, 0, 0, 0, 0, 0, 0, 0, 0,
       0, 0, 0, 0, 0, 0, 0, 0, 0, 0, 0, 0, 0, 0, 0, 0, 0, 0, 0, 0, 0, 0,
       0, 0, 0, 0, 0, 0, 0, 0, 0, 0, 0, 0, 0, 0, 0, 0, 0, 0, 0, 0, 0, 0,
       0, 0, 0, 0, 0, 0, 0, 0, 0, 0, 0, 0, 0, 0, 0, 0, 0, 0, 0, 0, 0, 0,
       0, 0, 0, 0, 0, 0, 0, 0, 0, 0, 0, 0, 0, 0, 0, 0, 0, 0, 0, 0, 0, 0,
       0, 0, 0, 0, 0, 0, 0, 0, 0, 0, 0, 0, 0, 0, 0, 0, 0, 0, 0, 0, 0, 0,
       0, 0, 0, 0, 0, 0, 0, 0, 0, 0, 0, 0, 0, 0, 0, 0, 0, 0, 0, 0, 0, 0,
       0, 0, 0, 0, 0, 0, 0, 0, 0, 0, 0, 0, 0, 0, 0, 0, 0, 0, 0, 0, 0, 0,
       0, 0, 0, 0, 0, 0, 0, 0, 0, 0, 0, 0, 0, 0, 0, 0, 0, 0, 0, 0, 0, 0,
       0, 0, 0, 0, 0, 0, 0, 0, 0, 0, 0, 0, 0, 0, 0, 0, 0, 0, 0, 0, 0, 0,
       0, 0, 0, 0, 0, 0, 0, 0, 0, 0, 0, 0, 0, 0, 0, 0, 0, 0, 0, 0, 0, 0,
       0, 0, 0, 0, 0, 0, 0, 0, 0, 0, 0, 0, 0, 0, 0, 0, 0, 0, 0, 0, 0, 0,
       0, 0, 0, 0, 0, 0, 0, 0, 0, 0, 0, 0, 0, 0, 0, 0, 0, 0, 0, 0, 0, 0,
       0, 0, 0, 0, 0, 0, 0, 0, 0, 0, 0, 0, 0, 0, 0, 0, 0, 0, 0, 0, 0, 0,
       0, 0, 0, 0, 0, 0, 0, 0, 0, 0, 0, 0, 0, 0, 0, 0, 0, 0, 0, 0, 0, 0,
       0, 0, 0, 0, 0, 0, 0, 0, 0, 0, 0, 0, 0, 0, 0, 0, 0, 0, 0, 0, 0, 0,
       0, 0, 0, 0, 0, 0, 0, 0, 0, 0, 0, 0, 0, 0, 0, 0, 0, 0, 0, 0, 0, 0,
       0, 0, 0, 0, 0, 0, 0, 0, 0, 0, 0, 0, 0, 0, 0, 0, 0, 0, 0, 0, 0, 0,
       0, 0, 0, 0, 0, 0, 0, 0, 0, 0, 0, 0, 0, 0, 0, 0, 0, 0, 0, 0, 0, 0,
       0, 0, 0, 0, 0, 0, 0, 0, 0, 0, 0, 0, 0, 0, 0, 0, 0, 0, 0, 0, 0, 0,
       0, 0, 0, 0, 0, 0, 0, 0, 0, 0, 0, 0, 0, 0, 0, 0, 0, 0, 0, 0, 0, 0,
       0, 0, 0, 0, 0, 0, 0, 0, 0, 0, 0, 0, 0, 0, 0, 0, 0, 0, 0, 0, 0, 0,
       0, 0, 0, 0, 0, 0, 0, 0, 0, 0, 0, 0, 0, 0, 0, 0, 0, 0, 0, 0, 0, 0,
       0, 0, 0, 0, 0, 0, 0, 0, 0, 0, 0, 0, 0, 0, 0, 0, 0, 0, 0, 0, 0, 0,
       0, 0, 0, 0, 0, 0, 0, 0, 0, 0, 0, 0, 0, 0, 0, 0, 0, 0, 0, 0, 0, 0,
       0, 0, 0, 0, 0, 0, 0, 0, 0, 0, 0, 0, 0, 0, 0, 0, 0, 0, 0, 0, 0, 0,
       0, 0, 0, 0, 0, 0, 0, 0, 0, 0, 0, 0, 0, 0, 0, 0, 0, 0, 0, 0, 0, 0,
       0, 0, 0, 0, 0, 0, 0, 0, 0, 0, 0, 0, 0, 0, 0, 0, 0, 0, 0, 0, 0, 0,
       0, 0, 0, 0, 0, 0, 0, 0, 0, 0, 0, 0, 0, 0, 0, 0, 0, 0, 0, 0, 0, 0,
       0, 0, 0, 0, 0, 0, 0, 0, 0, 0, 0, 0, 0, 0, 0, 0, 0, 0, 0, 0, 0, 0,
       0, 0, 0, 0, 0, 0, 0, 0, 0, 0, 0, 0, 0, 0, 0, 0, 0, 0, 0, 0, 0, 0,
       0, 0, 0, 0, 0, 0, 0, 0, 0, 0, 0, 0, 0, 0, 0, 0, 0, 0, 0, 0, 0, 0,
       0, 0, 0, 0, 0, 0, 0, 0, 0, 0, 0, 0, 0, 0, 0, 0, 0, 0, 0, 0, 0, 0,
       0, 0, 0, 0, 0, 0, 0, 0, 0, 0, 0, 0, 0, 0, 0, 0, 0, 0, 0, 0, 0, 0,
       0, 0, 0, 0, 0, 0, 0, 0, 0, 0, 0, 0, 0, 0, 0, 0, 0, 0, 0, 0, 0, 0,
       0, 0, 0, 0, 0, 0, 0, 0, 0, 0, 0, 0, 0, 0, 0, 0, 0, 0, 0, 0, 0, 0,
       0, 0, 0, 0, 0, 0, 0, 0, 0, 0, 0, 0, 0, 0, 0, 0, 0, 0, 0, 0, 0, 0,
       0, 0, 0, 0, 0, 0, 0, 0, 0, 0, 0, 0, 0, 0, 0, 0, 0, 0, 0, 0, 0, 0,
       0, 0, 0, 0, 0, 0, 0, 0, 0, 0, 0, 0, 0, 0, 0, 0, 0, 0, 0, 0, 0, 0,
       0, 0, 0, 0, 0, 0, 0, 0, 0, 0, 0, 0, 0, 0, 0, 0, 0, 0, 0, 0, 0, 0,
       0, 0, 0, 0, 0, 0, 0, 0, 0, 0, 0, 0, 0, 0, 0, 0, 0, 0, 0, 0, 0, 0,
       0, 0, 0, 0, 0, 0, 0, 0, 0, 0, 0, 0, 0, 0, 0, 0, 0, 0, 0, 0, 0, 0,
       0, 0, 0, 0, 0, 0, 0, 0, 0, 0, 0, 0, 0, 0, 0, 0, 0, 0, 0, 0, 0, 0,
       0, 0, 0, 0, 0, 0, 0, 0, 0, 0, 0, 0, 0, 0, 0, 0, 0, 0, 0, 0, 0, 0,
       0, 0, 0, 0, 0, 0, 0, 0, 0, 0, 0, 0, 0, 0, 0, 0, 0, 0, 0, 0, 0, 0,
       0, 0, 0, 0, 0, 0, 0, 0, 0, 0, 0, 0, 0, 0, 0, 0, 0, 0, 0, 0, 0, 0,
       0, 0, 0, 0, 0, 0, 0, 0, 0, 0, 0, 0, 0, 0, 0, 0, 0, 0, 0, 0, 0, 0,
       0, 0, 0, 0, 0, 0, 0, 0, 0, 0, 0, 0, 0, 0, 0, 0, 0, 0, 0, 0, 0, 0,
       0, 0, 0, 0, 0, 0, 0, 0, 0, 0, 0, 0, 0, 0, 0, 0, 0, 0, 0, 0, 0, 0,
       0, 0, 0, 0, 0, 0, 0, 0, 0, 0, 0, 0, 0, 0, 0, 0, 0, 0, 0, 0, 0, 0,
       0, 0, 0, 0, 0, 0, 0, 0, 0, 0, 0, 0, 0, 0, 0, 0, 0, 0, 0, 0, 0, 0,
       0, 0, 0, 0, 0, 0, 0, 0, 0, 0, 0, 0, 0, 0, 0, 0, 0, 0, 0, 0, 0, 0,
       0, 0, 0, 0, 0, 0, 0, 0, 0, 0, 0, 0, 0, 0, 0, 0, 0, 0, 0, 0, 0, 0,
       0, 0, 0, 0, 0, 0, 0, 0, 0, 0, 0, 0, 0, 0, 0, 0, 0, 0, 0, 0, 0, 0,
       0, 0, 0, 0, 0, 0, 0, 0, 0, 0, 0, 0, 0, 0, 0, 0, 0, 0, 0, 0, 0, 0,
       0, 0, 0, 0, 0, 0, 0, 0, 0, 0, 0, 0, 0, 0, 0, 0, 0, 0, 0, 0, 0, 0,
       0, 0, 0, 0, 0, 0, 0, 0, 0, 0, 0, 0, 0, 0, 0, 0, 0, 0, 0, 0, 0, 0,
       0, 0, 0, 0, 0, 0, 0, 0, 0, 0, 0, 0, 0, 0, 0, 0, 0, 0, 0, 0, 0, 0,
       0, 0, 0, 0, 0, 0, 0, 0, 0, 0, 0, 0, 0, 0, 0, 0, 0, 0, 0, 0, 0, 0,
       0, 0, 0, 0, 0, 0, 0, 0, 0, 0, 0, 0, 0, 0, 0, 0, 0, 0, 0, 0, 0, 0,
       0, 0, 0, 0, 0, 0, 0, 0, 0, 0, 0, 0, 0, 0, 0, 0, 0, 0, 0, 0, 0, 0,
       0, 0, 0, 0, 0, 0, 0, 0, 0, 0, 0, 0, 0, 0, 0, 0, 0, 0, 0, 0, 0, 0,
       0, 0, 0, 0, 0, 0, 0, 0, 0, 0, 0, 0, 0, 0, 0, 0, 0, 0, 0, 0, 0, 0,
       0, 0, 0, 0, 0, 0, 0, 0, 0, 0, 0, 0, 0, 0, 0, 0, 0, 0, 0, 0, 0, 0,
       0, 0, 0, 0, 0, 0, 0, 0, 0, 0, 0, 0, 0, 0, 0, 0, 0, 0, 0, 0, 0, 0,
       0, 0, 0, 0, 0, 0, 0, 0, 0, 0, 0, 0, 0, 0, 0, 0, 0, 0, 0, 0, 0, 0,
       0, 0, 0, 0, 0, 0, 0, 0, 0, 0, 0, 0, 0, 0, 0, 0, 0, 0, 0, 0, 0, 0,
       0, 0, 0, 0, 0, 0, 0, 0, 0, 0, 0, 0, 0, 0, 0, 0, 0, 0, 0, 0, 0, 0,
       0, 0, 0, 0, 0, 0, 0, 0, 0, 0, 0, 0, 0, 0, 0, 0, 0, 0, 0, 0, 0, 0,
       0, 0, 0, 0, 0, 0, 0, 0, 0, 0, 0, 0, 0, 0, 0, 0, 0, 0, 0, 0, 0, 0,
       0, 0, 0, 0, 0, 0, 0, 0, 0, 0, 0, 0, 0, 0, 0, 0, 0, 0, 0, 0, 0, 0,
       0, 0, 0, 0, 0, 0, 0, 0, 0, 0, 0, 0, 0, 0, 0, 0, 0, 0, 0, 0, 0, 0,
       0, 0, 0, 0, 0, 0, 0, 0, 0, 0, 0, 0, 0, 0, 0, 0, 0, 0, 0, 0, 0, 0,
       0, 0, 0, 0, 0, 0, 0, 0, 0, 0, 0, 0, 0, 0, 0, 0, 0, 0, 0, 0, 0, 0,
       0, 0, 0, 0, 0, 0, 0, 0, 0, 0, 0, 0, 0, 0, 0, 0, 0, 0, 0, 0, 0, 0,
       0, 0, 0, 0, 0, 0, 0, 0, 0, 0, 0, 0, 0, 0, 0, 0, 0, 0, 0, 0, 0, 0,
       0, 0, 0, 0, 0, 0, 0, 0, 0, 0, 0, 0, 0, 0, 0, 0, 0, 0, 0, 0, 0, 0,
       0, 0, 0, 0, 0, 0, 0, 0, 0, 0, 0, 0, 0, 0, 0, 0, 0, 0, 0, 0, 0, 0,
       0, 0, 0, 0, 0, 0, 0, 0, 0, 0, 0, 0, 0, 0, 0, 0, 0, 0, 0, 0, 0, 0,
       0, 0, 0, 0, 0, 0, 0, 0, 0, 0, 0, 0, 0, 0, 0, 0, 0, 0, 0, 0, 0, 0,
       0, 0, 0, 0, 0, 0, 0, 0, 0, 0, 0, 0, 0, 0, 0, 0, 0, 0, 0, 0, 0, 0,
       0, 0, 0, 0, 0, 0, 0, 0, 0, 0, 0, 0, 0, 0, 0, 0, 0, 0, 0, 0, 0, 0,
       0, 0, 0, 0, 0, 0, 0, 0, 0, 0, 0, 0, 0, 0, 0, 0, 0, 0, 0, 0, 0, 0,
       0, 0, 0, 0, 0, 0, 0, 0, 0, 0, 0, 0, 0, 0, 0, 0, 0, 0, 0, 0, 0, 0,
       0, 0, 0, 0, 0, 0, 0, 0, 0, 0, 0, 0, 0, 0, 0, 0, 0, 0, 0, 0, 0, 0,
       0, 0, 0, 0, 0, 0, 0, 0, 0, 0, 0, 0, 0, 0, 0, 0, 0, 0, 0, 0, 0, 0,
       0, 0, 0, 0, 0, 0, 0, 0, 0, 0, 0, 0, 0, 0, 0, 0, 0, 0, 0, 0, 0, 0,
       0, 0, 0, 0, 0, 0, 0, 0, 0, 0, 0, 0, 0, 0, 0, 0, 0, 0, 0, 0, 0, 0,
       0, 0, 0, 0, 0, 0, 0, 0, 0, 0, 0, 0, 0, 0, 0, 0, 0, 0, 0, 0, 0, 0,
       0, 0, 0, 0, 0, 0, 0, 0, 0, 0, 0, 0, 0, 0, 0, 0, 0, 0, 0, 0, 0, 0,
       0, 0, 0, 0, 0, 0, 0, 0, 0, 0, 0, 0, 0, 0, 0, 0, 0, 0, 0, 0, 0, 0,
       0, 0, 0, 0, 0, 0, 0, 0, 0, 0, 0, 0, 0, 0, 0, 0, 0, 0, 0, 0, 0, 0,
       0, 0, 0, 0, 0, 0, 0, 0, 0, 0, 0, 0, 0, 0, 0, 0, 0, 0, 0, 0, 0, 0,
       0, 0, 0, 0, 0, 0, 0, 0, 0, 0, 0, 0, 0, 0, 0, 0, 0, 0, 0, 0, 0, 0,
       0, 0, 0, 0, 0, 0, 0, 0, 0, 0, 0, 0, 0, 0, 0, 0, 0, 0, 0, 0, 0, 0,
       0, 0, 0, 0, 0, 0, 0, 0, 0, 0, 0, 0, 0, 0, 0, 0, 0, 0, 0, 0, 0, 0,
       0, 0, 0, 0, 0, 0, 0, 0, 0, 0, 0, 0, 0, 0, 0, 0, 0, 0, 0, 0, 0, 0,
       0, 0, 0, 0, 0, 0, 0, 0, 0, 0, 0, 0, 0, 0, 0, 0, 0, 0, 0, 0, 0, 0,
       0, 0, 0, 0, 0, 0, 0, 0, 0, 0, 0, 0, 0, 0, 0, 0, 0, 0, 0, 0, 0, 0,
       0, 0, 0, 0, 0, 0, 0, 0, 0, 0, 0, 0, 0, 0, 0, 0, 0, 0, 0, 0, 0, 0,
       0, 0, 0, 0, 0, 0, 0, 0, 0, 0, 0, 0, 0, 0, 0, 0, 0, 0, 0, 0, 0, 0,
       0, 0, 0, 0, 0, 0, 0, 0, 0, 0, 0, 0, 0, 0, 0, 0, 0, 0, 0, 0, 0, 0,
       0, 0, 0, 0, 0, 0, 0, 0, 0, 0, 0, 0, 0, 0, 0, 0, 0, 0, 0, 0, 0, 0,
       0, 0, 0, 0, 0, 0, 0, 0, 0, 0, 0, 0, 0, 0, 0, 0, 0, 0, 0, 0, 0, 0,
       0, 0, 0, 0, 0, 0, 0, 0, 0, 0, 0, 0, 0, 0, 0, 0, 0, 0, 0, 0, 0, 0,
       0, 0, 0, 0, 0, 0, 0, 0, 0, 0, 0, 0, 0, 0, 0, 0, 0, 0, 0, 0, 0, 0,
       0, 0, 0, 0, 0, 0, 0, 0, 0, 0, 0, 0, 0, 0, 0, 0, 0, 0, 0, 0, 0, 0,
       0, 0, 0, 0, 0, 0, 0, 0, 0, 0, 0, 0, 0, 0, 0, 0, 0, 0, 0, 0, 0, 0,
       0, 0, 0, 0, 0, 0, 0, 0, 0, 0, 0, 0, 0, 0, 0, 0, 0, 0, 0, 0, 0, 0,
       0, 0, 0, 0, 0, 0, 0, 0, 0, 0, 0, 0, 0, 0, 0, 0, 0, 0, 0, 0, 0, 0,
       0, 0, 0, 0, 0, 0, 0, 0, 0, 0, 0, 0, 0, 0, 0, 0, 0, 0, 0, 0, 0, 0,
       0, 0, 0, 0, 0, 0, 0, 0, 0, 0, 0, 0, 0, 0, 0, 0, 0, 0, 0, 0, 0, 0,
       0, 0, 0, 0, 0, 0, 0, 0, 0, 0, 0, 0, 0, 0 ]
   missing_subst: [ 0., 0., 0., 0., 0., 0., 0., 0., 0., 0., 0., 0., 0.,
       0., 0., 0., 0., 0., 0., 0., 0., 0., 0., 0., 0., 0., 0., 0., 0.,
       0., 0., 0., 0., 0., 0., 0., 0., 0., 0., 0., 0., 0., 0., 0., 0.,
       0., 0., 0., 0., 0., 0., 0., 0., 0., 0., 0., 0., 0., 0., 0., 0.,
       0., 0., 0., 0., 0., 0., 0., 0., 0., 0., 0., 0., 0., 0., 0., 0.,
       0., 0., 0., 0., 0., 0., 0., 0., 0., 0., 0., 0., 0., 0., 0., 0.,
       0., 0., 0., 0., 0., 0., 0., 0., 0., 0., 0., 0., 0., 0., 0., 0.,
       0., 0., 0., 0., 0., 0., 0., 0., 0., 0., 0., 0., 0., 0., 0., 0.,
       0., 0., 0., 0., 0., 0., 0., 0., 0., 0., 0., 0., 0., 0., 0., 0.,
       0., 0., 0., 0., 0., 0., 0., 0., 0., 0., 0., 0., 0., 0., 0., 0.,
       0., 0., 0., 0., 0., 0., 0., 0., 0., 0., 0., 0., 0., 0., 0., 0.,
       0., 0., 0., 0., 0., 0., 0., 0., 0., 0., 0., 0., 0., 0., 0., 0.,
       0., 0., 0., 0., 0., 0., 0., 0., 0., 0., 0., 0., 0., 0., 0., 0.,
       0., 0., 0., 0., 0., 0., 0., 0., 0., 0., 0., 0., 0., 0., 0., 0.,
       0., 0., 0., 0., 0., 0., 0., 0., 0., 0., 0., 0., 0., 0., 0., 0.,
       0., 0., 0., 0., 0., 0., 0., 0., 0., 0., 0., 0., 0., 0., 0., 0.,
       0., 0., 0., 0., 0., 0., 0., 0., 0., 0., 0., 0., 0., 0., 0., 0.,
       0., 0., 0., 0., 0., 0., 0., 0., 0., 0., 0., 0., 0., 0., 0., 0.,
       0., 0., 0., 0., 0., 0., 0., 0., 0., 0., 0., 0., 0., 0., 0., 0.,
       0., 0., 0., 0., 0., 0., 0., 0., 0., 0., 0., 0., 0., 0., 0., 0.,
       0., 0., 0., 0., 0., 0., 0., 0., 0., 0., 0., 0., 0., 0., 0., 0.,
       0., 0., 0., 0., 0., 0., 0., 0., 0., 0., 0., 0., 0., 0., 0., 0.,
       0., 0., 0., 0., 0., 0., 0., 0., 0., 0., 0., 0., 0., 0., 0., 0.,
       0., 0., 0., 0., 0., 0., 0., 0., 0., 0., 0., 0., 0., 0., 0., 0.,
       0., 0., 0., 0., 0., 0., 0., 0., 0., 0., 0., 0., 0., 0., 0., 0.,
       0., 0., 0., 0., 0., 0., 0., 0., 0., 0., 0., 0., 0., 0., 0., 0.,
       0., 0., 0., 0., 0., 0., 0., 0., 0., 0., 0., 0., 0., 0., 0., 0.,
       0., 0., 0., 0., 0., 0., 0., 0., 0., 0., 0., 0., 0., 0., 0., 0.,
       0., 0., 0., 0., 0., 0., 0., 0., 0., 0., 0., 0., 0., 0., 0., 0.,
       0., 0., 0., 0., 0., 0., 0., 0., 0., 0., 0., 0., 0., 0., 0., 0.,
       0., 0., 0., 0., 0., 0., 0., 0., 0., 0., 0., 0., 0., 0., 0., 0.,
       0., 0., 0., 0., 0., 0., 0., 0., 0., 0., 0., 0., 0., 0., 0., 0.,
       0., 0., 0., 0., 0., 0., 0., 0., 0., 0., 0., 0., 0., 0., 0., 0.,
       0., 0., 0., 0., 0., 0., 0., 0., 0., 0., 0., 0., 0., 0., 0., 0.,
       0., 0., 0., 0., 0., 0., 0., 0., 0., 0., 0., 0., 0., 0., 0., 0.,
       0., 0., 0., 0., 0., 0., 0., 0., 0., 0., 0., 0., 0., 0., 0., 0.,
       0., 0., 0., 0., 0., 0., 0., 0., 0., 0., 0., 0., 0., 0., 0., 0.,
       0., 0., 0., 0., 0., 0., 0., 0., 0., 0., 0., 0., 0., 0., 0., 0.,
       0., 0., 0., 0., 0., 0., 0., 0., 0., 0., 0., 0., 0., 0., 0., 0.,
       0., 0., 0., 0., 0., 0., 0., 0., 0., 0., 0., 0., 0., 0., 0., 0.,
       0., 0., 0., 0., 0., 0., 0., 0., 0., 0., 0., 0., 0., 0., 0., 0.,
       0., 0., 0., 0., 0., 0., 0., 0., 0., 0., 0., 0., 0., 0., 0., 0.,
       0., 0., 0., 0., 0., 0., 0., 0., 0., 0., 0., 0., 0., 0., 0., 0.,
       0., 0., 0., 0., 0., 0., 0., 0., 0., 0., 0., 0., 0., 0., 0., 0.,
       0., 0., 0., 0., 0., 0., 0., 0., 0., 0., 0., 0., 0., 0., 0., 0.,
       0., 0., 0., 0., 0., 0., 0., 0., 0., 0., 0., 0., 0., 0., 0., 0.,
       0., 0., 0., 0., 0., 0., 0., 0., 0., 0., 0., 0., 0., 0., 0., 0.,
       0., 0., 0., 0., 0., 0., 0., 0., 0., 0., 0., 0., 0., 0., 0., 0.,
       0., 0., 0., 0., 0., 0., 0., 0., 0., 0., 0., 0., 0., 0., 0., 0.,
       0., 0., 0., 0., 0., 0., 0., 0., 0., 0., 0., 0., 0., 0., 0., 0.,
       0., 0., 0., 0., 0., 0., 0., 0., 0., 0., 0., 0., 0., 0., 0., 0.,
       0., 0., 0., 0., 0., 0., 0., 0., 0., 0., 0., 0., 0., 0., 0., 0.,
       0., 0., 0., 0., 0., 0., 0., 0., 0., 0., 0., 0., 0., 0., 0., 0.,
       0., 0., 0., 0., 0., 0., 0., 0., 0., 0., 0., 0., 0., 0., 0., 0.,
       0., 0., 0., 0., 0., 0., 0., 0., 0., 0., 0., 0., 0., 0., 0., 0.,
       0., 0., 0., 0., 0., 0., 0., 0., 0., 0., 0., 0., 0., 0., 0., 0.,
       0., 0., 0., 0., 0., 0., 0., 0., 0., 0., 0., 0., 0., 0., 0., 0.,
       0., 0., 0., 0., 0., 0., 0., 0., 0., 0., 0., 0., 0., 0., 0., 0.,
       0., 0., 0., 0., 0., 0., 0., 0., 0., 0., 0., 0., 0., 0., 0., 0.,
       0., 0., 0., 0., 0., 0., 0., 0., 0., 0., 0., 0., 0., 0., 0., 0.,
       0., 0., 0., 0., 0., 0., 0., 0., 0., 0., 0., 0., 0., 0., 0., 0.,
       0., 0., 0., 0., 0., 0., 0., 0., 0., 0., 0., 0., 0., 0., 0., 0.,
       0., 0., 0., 0., 0., 0., 0., 0., 0., 0., 0., 0., 0., 0., 0., 0.,
       0., 0., 0., 0., 0., 0., 0., 0., 0., 0., 0., 0., 0., 0., 0., 0.,
       0., 0., 0., 0., 0., 0., 0., 0., 0., 0., 0., 0., 0., 0., 0., 0.,
       0., 0., 0., 0., 0., 0., 0., 0., 0., 0., 0., 0., 0., 0., 0., 0.,
       0., 0., 0., 0., 0., 0., 0., 0., 0., 0., 0., 0., 0., 0., 0., 0.,
       0., 0., 0., 0., 0., 0., 0., 0., 0., 0., 0., 0., 0., 0., 0., 0.,
       0., 0., 0., 0., 0., 0., 0., 0., 0., 0., 0., 0., 0., 0., 0., 0.,
       0., 0., 0., 0., 0., 0., 0., 0., 0., 0., 0., 0., 0., 0., 0., 0.,
       0., 0., 0., 0., 0., 0., 0., 0., 0., 0., 0., 0., 0., 0., 0., 0.,
       0., 0., 0., 0., 0., 0., 0., 0., 0., 0., 0., 0., 0., 0., 0., 0.,
       0., 0., 0., 0., 0., 0., 0., 0., 0., 0., 0., 0., 0., 0., 0., 0.,
       0., 0., 0., 0., 0., 0., 0., 0., 0., 0., 0., 0., 0., 0., 0., 0.,
       0., 0., 0., 0., 0., 0., 0., 0., 0., 0., 0., 0., 0., 0., 0., 0.,
       0., 0., 0., 0., 0., 0., 0., 0., 0., 0., 0., 0., 0., 0., 0., 0.,
       0., 0., 0., 0., 0., 0., 0., 0., 0., 0., 0., 0., 0., 0., 0., 0.,
       0., 0., 0., 0., 0., 0., 0., 0., 0., 0., 0., 0., 0., 0., 0., 0.,
       0., 0., 0., 0., 0., 0., 0., 0., 0., 0., 0., 0., 0., 0., 0., 0.,
       0., 0., 0., 0., 0., 0., 0., 0., 0., 0., 0., 0., 0., 0., 0., 0.,
       0., 0., 0., 0., 0., 0., 0., 0., 0., 0., 0., 0., 0., 0., 0., 0.,
       0., 0., 0., 0., 0., 0., 0., 0., 0., 0., 0., 0., 0., 0., 0., 0.,
       0., 0., 0., 0., 0., 0., 0., 0., 0., 0., 0., 0., 0., 0., 0., 0.,
       0., 0., 0., 0., 0., 0., 0., 0., 0., 0., 0., 0., 0., 0., 0., 0.,
       0., 0., 0., 0., 0., 0., 0., 0., 0., 0., 0., 0., 0., 0., 0., 0.,
       0., 0., 0., 0., 0., 0., 0., 0., 0., 0., 0., 0., 0., 0., 0., 0.,
       0., 0., 0., 0., 0., 0., 0., 0., 0., 0., 0., 0., 0., 0., 0., 0.,
       0., 0., 0., 0., 0., 0., 0., 0., 0., 0., 0., 0., 0., 0., 0., 0.,
       0., 0., 0., 0., 0., 0., 0., 0., 0., 0., 0., 0., 0., 0., 0., 0.,
       0., 0., 0., 0., 0., 0., 0., 0., 0., 0., 0., 0., 0., 0., 0., 0.,
       0., 0., 0., 0., 0., 0., 0., 0., 0., 0., 0., 0., 0., 0., 0., 0.,
       0., 0., 0., 0., 0., 0., 0., 0., 0., 0., 0., 0., 0., 0., 0., 0.,
       0., 0., 0., 0., 0., 0., 0., 0., 0., 0., 0., 0., 0., 0., 0., 0.,
       0., 0., 0., 0., 0., 0., 0., 0., 0., 0., 0., 0., 0., 0., 0., 0.,
       0., 0., 0., 0., 0., 0., 0., 0., 0., 0., 0., 0., 0., 0., 0., 0.,
       0., 0., 0., 0., 0., 0., 0., 0., 0., 0., 0., 0., 0., 0., 0., 0.,
       0., 0., 0., 0., 0., 0., 0., 0., 0., 0., 0., 0., 0., 0., 0., 0.,
       0., 0., 0., 0., 0., 0., 0., 0., 0., 0., 0., 0., 0., 0., 0., 0.,
       0., 0., 0., 0., 0., 0., 0., 0., 0., 0., 0., 0., 0., 0., 0., 0.,
       0., 0., 0., 0., 0., 0., 0., 0., 0., 0., 0., 0., 0., 0., 0., 0.,
       0., 0., 0., 0., 0., 0., 0., 0., 0., 0., 0., 0., 0., 0., 0., 0.,
       0., 0., 0., 0., 0., 0., 0., 0., 0., 0., 0., 0., 0., 0., 0., 0.,
       0., 0., 0., 0., 0., 0., 0., 0., 0., 0., 0., 0., 0., 0., 0., 0.,
       0., 0., 0., 0., 0., 0., 0., 0., 0., 0., 0., 0., 0., 0., 0., 0.,
       0., 0., 0., 0., 0., 0., 0., 0., 0., 0., 0., 0., 0., 0., 0., 0.,
       0., 0., 0., 0., 0., 0., 0., 0., 0., 0., 0., 0., 0., 0., 0., 0.,
       0., 0., 0., 0., 0., 0., 0., 0., 0., 0., 0., 0., 0., 0., 0., 0.,
       0., 0., 0., 0., 0., 0., 0., 0., 0., 0., 0., 0., 0., 0., 0., 0.,
       0., 0., 0., 0., 0., 0., 0., 0., 0., 0., 0., 0., 0., 0., 0., 0.,
       0., 0., 0., 0., 0., 0., 0., 0., 0., 0., 0., 0., 0., 0., 0., 0.,
       0., 0., 0., 0., 0., 0., 0., 0., 0., 0., 0., 0., 0., 0., 0., 0.,
       0., 0., 0., 0., 0., 0., 0., 0., 0., 0., 0., 0., 0., 0., 0., 0.,
       0., 0., 0., 0., 0., 0., 0., 0., 0., 0., 0., 0., 0., 0., 0., 0.,
       0., 0., 0., 0., 0., 0., 0., 0., 0., 0., 0., 0., 0., 0., 0., 0.,
       0., 0., 0., 0., 0., 0., 0., 0., 0., 0., 0., 0., 0., 0., 0., 0.,
       0., 0., 0., 0., 0., 0., 0., 0., 0., 0., 0., 0., 0., 0., 0., 0.,
       0., 0., 0., 0., 0., 0., 0., 0., 0., 0., 0., 0., 0., 0., 0., 0.,
       0., 0., 0., 0., 0., 0., 0., 0., 0., 0., 0., 0., 0., 0., 0., 0.,
       0., 0., 0., 0., 0., 0., 0., 0., 0., 0., 0., 0., 0., 0., 0., 0.,
       0., 0., 0., 0., 0., 0., 0., 0., 0., 0., 0., 0., 0., 0., 0., 0.,
       0., 0., 0., 0., 0., 0., 0., 0., 0., 0., 0., 0., 0., 0., 0., 0.,
       0., 0., 0., 0., 0., 0., 0., 0., 0., 0., 0., 0., 0., 0., 0., 0.,
       0., 0., 0., 0., 0., 0., 0., 0., 0., 0., 0., 0., 0., 0., 0., 0.,
       0., 0., 0., 0., 0., 0., 0., 0., 0., 0., 0., 0., 0., 0., 0., 0.,
       0., 0., 0., 0., 0., 0., 0., 0., 0., 0., 0., 0., 0., 0., 0., 0.,
       0., 0., 0., 0., 0., 0., 0., 0., 0., 0., 0., 0., 0., 0., 0., 0.,
       0., 0., 0., 0., 0., 0., 0., 0., 0., 0., 0., 0., 0., 0., 0., 0.,
       0., 0., 0., 0., 0., 0., 0., 0., 0., 0., 0., 0., 0., 0., 0., 0.,
       0., 0., 0., 0., 0., 0., 0., 0., 0., 0., 0., 0., 0., 0., 0., 0.,
       0., 0., 0., 0., 0., 0., 0., 0., 0., 0., 0., 0., 0., 0., 0., 0.,
       0., 0., 0., 0., 0., 0., 0., 0., 0., 0., 0., 0., 0., 0., 0., 0.,
       0., 0., 0., 0., 0., 0., 0., 0., 0., 0., 0., 0., 0., 0., 0., 0.,
       0., 0., 0., 0., 0., 0., 0., 0., 0., 0., 0., 0., 0., 0., 0., 0.,
       0., 0., 0., 0., 0., 0., 0., 0., 0., 0., 0., 0., 0., 0., 0., 0.,
       0., 0., 0., 0., 0., 0., 0., 0., 0., 0., 0., 0., 0., 0., 0., 0.,
       0., 0., 0., 0., 0., 0., 0., 0., 0., 0., 0., 0., 0., 0., 0., 0.,
       0., 0., 0., 0., 0., 0., 0., 0., 0., 0., 0., 0., 0., 0., 0., 0.,
       0., 0., 0., 0., 0., 0., 0., 0., 0., 0., 0., 0., 0., 0., 0., 0.,
       0., 0., 0., 0., 0., 0., 0., 0., 0., 0., 0., 0., 0., 0., 0., 0.,
       0., 0., 0., 0., 0., 0., 0., 0., 0., 0., 0., 0., 0., 0., 0., 0.,
       0., 0., 0., 0., 0., 0., 0., 0., 0., 0., 0., 0., 0., 0., 0., 0.,
       0., 0., 0., 0., 0., 0., 0., 0., 0., 0., 0., 0., 0., 0., 0., 0.,
       0., 0., 0., 0., 0., 0., 0., 0., 0., 0., 0., 0., 0., 0., 0., 0.,
       0., 0., 0., 0., 0., 0., 0., 0., 0., 0., 0., 0., 0., 0., 0., 0.,
       0., 0., 0., 0., 0., 0., 0., 0., 0., 0., 0., 0., 0., 0., 0., 0.,
       0., 0., 0., 0., 0., 0., 0., 0., 0., 0., 0., 0., 0., 0., 0., 0.,
       0., 0., 0., 0., 0., 0., 0., 0., 0., 0., 0., 0., 0., 0., 0., 0.,
       0., 0., 0., 0., 0., 0., 0., 0., 0., 0., 0., 0., 0., 0., 0., 0.,
       0., 0., 0., 0., 0., 0., 0., 0., 0., 0., 0., 0., 0., 0., 0., 0.,
       0., 0., 0., 0., 0., 0., 0., 0., 0., 0., 0., 0., 0., 0., 0., 0.,
       0., 0., 0., 0., 0., 0., 0., 0., 0., 0., 0., 0., 0., 0., 0., 0.,
       0., 0., 0., 0., 0., 0., 0., 0., 0., 0., 0., 0., 0., 0., 0., 0.,
       0., 0., 0., 0., 0., 0., 0., 0., 0., 0., 0., 0., 0., 0., 0., 0.,
       0., 0., 0., 0., 0., 0., 0., 0., 0., 0., 0., 0., 0., 0., 0., 0.,
       0., 0., 0., 0., 0., 0., 0., 0., 0., 0., 0., 0., 0., 0., 0., 0.,
       0., 0., 0., 0., 0., 0., 0., 0., 0., 0., 0., 0., 0., 0., 0., 0.,
       0., 0., 0., 0., 0., 0., 0., 0., 0., 0., 0., 0., 0., 0., 0., 0.,
       0., 0., 0., 0., 0., 0., 0., 0., 0., 0., 0., 0., 0., 0., 0., 0.,
       0., 0., 0., 0., 0., 0., 0., 0., 0., 0., 0., 0., 0., 0., 0., 0.,
       0., 0., 0., 0., 0., 0., 0., 0., 0., 0., 0., 0., 0., 0., 0., 0.,
       0., 0., 0., 0., 0., 0., 0., 0., 0., 0., 0., 0., 0., 0., 0., 0.,
       0., 0., 0., 0., 0., 0., 0., 0., 0., 0., 0., 0., 0., 0., 0., 0.,
       0., 0., 0., 0., 0., 0., 0., 0., 0., 0., 0., 0., 0., 0., 0., 0.,
       0., 0., 0., 0., 0., 0., 0., 0., 0., 0., 0., 0., 0., 0., 0., 0.,
       0., 0., 0., 0., 0., 0., 0., 0., 0., 0., 0., 0., 0., 0., 0., 0.,
       0., 0., 0., 0., 0., 0., 0., 0., 0., 0. ]
   oob_error: 2.1626664410189342e-01
   ntrees: 3
   trees:
      -
         nodes:
            -
               depth: 0
               value: 5.0203740465991009e-01
               splits:
                  - { var:14, quality:9.8149404296875000e+03,
                      le:-1.2206603288650513e+00 }
            -
               depth: 1
               value: 8.3732394366197183e-01
               splits:
                  - { var:152, quality:1.0019971313476563e+03,
                      le:-1.4144659042358398e+00 }
            -
               depth: 2
               value: 9.6024464831804279e-01
               splits:
                  - { var:712, quality:3.0311056518554688e+02,
                      le:-5.2622795104980469e+00 }
            -
               depth: 3
               value: 4.0000000000000002e-01
               splits:
                  - { var:261, quality:2., le:-4.1725358963012695e+00 }
            -
               depth: 4
               value: 1.
               splits:
                  - { var:1972, quality:2., le:2.0652801990509033e+00 }
            -
               depth: 5
               value: 1.
            -
               depth: 5
               value: 1.
            -
               depth: 4
               value: 0.
            -
               depth: 3
               value: 9.6894409937888204e-01
               splits:
                  - { var:728, quality:3.0276165771484375e+02,
                      le:1.5973617136478424e-01 }
            -
               depth: 4
               value: 9.9534883720930234e-01
               splits:
                  - { var:325, quality:2.1325000000000000e+02,
                      le:3.7010474205017090e+00 }
            -
               depth: 5
               value: 1.
               splits:
                  - { var:1449, quality:211., le:-4.3972406387329102e+00 }
            -
               depth: 6
               value: 1.
            -
               depth: 6
               value: 1.
               splits:
                  - { var:236, quality:209., le:-3.5539150238037109e+00 }
            -
               depth: 7
               value: 1.
            -
               depth: 7
               value: 1.
               splits:
                  - { var:1985, quality:208., le:-2.8132128715515137e+00 }
            -
               depth: 8
               value: 1.
            -
               depth: 8
               value: 1.
               splits:
                  - { var:734, quality:207., le:-7.7505793571472168e+00 }
            -
               depth: 9
               value: 1.
            -
               depth: 9
               value: 1.
               splits:
                  - { var:2226, quality:206., le:-4.9166069030761719e+00 }
            -
               depth: 10
               value: 1.
            -
               depth: 10
               value: 1.
               splits:
                  - { var:451, quality:204., le:-8.7076759338378906e+00 }
            -
               depth: 11
               value: 1.
            -
               depth: 11
               value: 1.
               splits:
                  - { var:2249, quality:201., le:-3.1538734436035156e+00 }
            -
               depth: 12
               value: 1.
            -
               depth: 12
               value: 1.
               splits:
                  - { var:2071, quality:199., le:-8.2510166168212891e+00 }
            -
               depth: 13
               value: 1.
            -
               depth: 13
               value: 1.
               splits:
                  - { var:183, quality:198., le:-5.5301809310913086e+00 }
            -
               depth: 14
               value: 1.
            -
               depth: 14
               value: 1.
               splits:
                  - { var:2296, quality:197., le:-3.9850549697875977e+00 }
            -
               depth: 15
               value: 1.
            -
               depth: 15
               value: 1.
               splits:
                  - { var:203, quality:196., le:-3.8966481685638428e+00 }
            -
               depth: 16
               value: 1.
            -
               depth: 16
               value: 1.
               splits:
                  - { var:1511, quality:194., le:-2.8380794525146484e+00 }
            -
               depth: 17
               value: 1.
            -
               depth: 17
               value: 1.
               splits:
                  - { var:1217, quality:193., le:-1.7857451438903809e+00 }
            -
               depth: 18
               value: 1.
            -
               depth: 18
               value: 1.
               splits:
                  - { var:1783, quality:192., le:-1.2269348144531250e+01 }
            -
               depth: 19
               value: 1.
            -
               depth: 19
               value: 1.
               splits:
                  - { var:773, quality:191., le:-7.8862586021423340e+00 }
            -
               depth: 20
               value: 1.
            -
               depth: 20
               value: 1.
               splits:
                  - { var:764, quality:189., le:-1.5240928649902344e+01 }
            -
               depth: 21
               value: 1.
            -
               depth: 21
               value: 1.
               splits:
                  - { var:694, quality:188., le:-5.8353395462036133e+00 }
            -
               depth: 22
               value: 1.
            -
               depth: 22
               value: 1.
               splits:
                  - { var:2501, quality:186., le:-2.3895106315612793e+00 }
            -
               depth: 23
               value: 1.
            -
               depth: 23
               value: 1.
               splits:
                  - { var:1321, quality:184., le:-4.0868573188781738e+00 }
            -
               depth: 24
               value: 1.
            -
               depth: 24
               value: 1.
               splits:
                  - { var:2150, quality:181., le:-9.9825811386108398e+00 }
            -
               depth: 25
               value: 1.
            -
               depth: 25
               value: 1.
            -
               depth: 5
               value: 7.5000000000000000e-01
               splits:
                  - { var:951, quality:3., le:1.0049622505903244e-01 }
            -
               depth: 6
               value: 0.
            -
               depth: 6
               value: 1.
               splits:
                  - { var:535, quality:3., le:-2.4467887878417969e+00 }
            -
               depth: 7
               value: 1.
            -
               depth: 7
               value: 1.
            -
               depth: 4
               value: 9.1588785046728971e-01
               splits:
                  - { var:1563, quality:9.0648368835449219e+01,
                      le:8.9575922489166260e-01 }
            -
               depth: 5
               value: 9.5555555555555560e-01
               splits:
                  - { var:1427, quality:8.2941177368164063e+01,
                      le:-6.1994051933288574e-01 }
            -
               depth: 6
               value: 7.6470588235294112e-01
               splits:
                  - { var:150, quality:1.1666666984558105e+01,
                      le:-2.1532623767852783e+00 }
            -
               depth: 7
               value: 1.
               splits:
                  - { var:1603, quality:11., le:-4.9756803512573242e+00 }
            -
               depth: 8
               value: 1.
            -
               depth: 8
               value: 1.
               splits:
                  - { var:393, quality:10., le:-3.3797223567962646e+00 }
            -
               depth: 9
               value: 1.
            -
               depth: 9
               value: 1.
               splits:
                  - { var:332, quality:9., le:-7.4110512733459473e+00 }
            -
               depth: 10
               value: 1.
            -
               depth: 10
               value: 1.
               splits:
                  - { var:265, quality:7., le:-4.6035251617431641e+00 }
            -
               depth: 11
               value: 1.
            -
               depth: 11
               value: 1.
               splits:
                  - { var:2150, quality:6., le:-6.8887150287628174e-01 }
            -
               depth: 12
               value: 1.
            -
               depth: 12
               value: 1.
               splits:
                  - { var:2135, quality:5., le:1.6452100872993469e-01 }
            -
               depth: 13
               value: 1.
            -
               depth: 13
               value: 1.
               splits:
                  - { var:1741, quality:4., le:-1.7464449405670166e+00 }
            -
               depth: 14
               value: 1.
            -
               depth: 14
               value: 1.
               splits:
                  - { var:1461, quality:3., le:1.0950170755386353e+00 }
            -
               depth: 15
               value: 1.
            -
               depth: 15
               value: 1.
            -
               depth: 7
               value: 3.3333333333333331e-01
               splits:
                  - { var:1041, quality:2., le:1.8967173099517822e+00 }
            -
               depth: 8
               value: 0.
            -
               depth: 8
               value: 1.
               splits:
                  - { var:2397, quality:2., le:2.4070103466510773e-01 }
            -
               depth: 9
               value: 1.
            -
               depth: 9
               value: 1.
            -
               depth: 6
               value: 1.
               splits:
                  - { var:1138, quality:73., le:-5.3521785736083984e+00 }
            -
               depth: 7
               value: 1.
            -
               depth: 7
               value: 1.
               splits:
                  - { var:2254, quality:71., le:-3.4220809936523438e+00 }
            -
               depth: 8
               value: 1.
            -
               depth: 8
               value: 1.
               splits:
                  - { var:2497, quality:70., le:-3.2074615955352783e+00 }
            -
               depth: 9
               value: 1.
            -
               depth: 9
               value: 1.
               splits:
                  - { var:578, quality:68., le:-3.3180541992187500e+00 }
            -
               depth: 10
               value: 1.
            -
               depth: 10
               value: 1.
               splits:
                  - { var:578, quality:67., le:-1.8345556259155273e+00 }
            -
               depth: 11
               value: 1.
            -
               depth: 11
               value: 1.
               splits:
                  - { var:1127, quality:66., le:-2.3958179950714111e+00 }
            -
               depth: 12
               value: 1.
            -
               depth: 12
               value: 1.
               splits:
                  - { var:1127, quality:63., le:-1.5933625698089600e+00 }
            -
               depth: 13
               value: 1.
            -
               depth: 13
               value: 1.
               splits:
                  - { var:1466, quality:60., le:-2.6930394172668457e+00 }
            -
               depth: 14
               value: 1.
            -
               depth: 14
               value: 1.
               splits:
                  - { var:2582, quality:59., le:-3.3542613983154297e+00 }
            -
               depth: 15
               value: 1.
            -
               depth: 15
               value: 1.
               splits:
                  - { var:2582, quality:57., le:-2.4353594779968262e+00 }
            -
               depth: 16
               value: 1.
            -
               depth: 16
               value: 1.
               splits:
                  - { var:1430, quality:56., le:-4.2694783210754395e+00 }
            -
               depth: 17
               value: 1.
            -
               depth: 17
               value: 1.
               splits:
                  - { var:2500, quality:53., le:-1.2692971229553223e+00 }
            -
               depth: 18
               value: 1.
            -
               depth: 18
               value: 1.
               splits:
                  - { var:1030, quality:50., le:-2.4351880550384521e+00 }
            -
               depth: 19
               value: 1.
            -
               depth: 19
               value: 1.
               splits:
                  - { var:2293, quality:49., le:-2.0410833358764648e+01 }
            -
               depth: 20
               value: 1.
            -
               depth: 20
               value: 1.
               splits:
                  - { var:794, quality:48., le:-7.3199706077575684e+00 }
            -
               depth: 21
               value: 1.
            -
               depth: 21
               value: 1.
               splits:
                  - { var:305, quality:47., le:-1.5898544788360596e+00 }
            -
               depth: 22
               value: 1.
            -
               depth: 22
               value: 1.
               splits:
                  - { var:1043, quality:46., le:-2.1274127960205078e+00 }
            -
               depth: 23
               value: 1.
            -
               depth: 23
               value: 1.
               splits:
                  - { var:909, quality:44., le:-2.2643563747406006e+00 }
            -
               depth: 24
               value: 1.
            -
               depth: 24
               value: 1.
               splits:
                  - { var:627, quality:41., le:-3.4906549453735352e+00 }
            -
               depth: 25
               value: 1.
            -
               depth: 25
               value: 1.
            -
               depth: 5
               value: 7.0588235294117652e-01
               splits:
                  - { var:1530, quality:1.0283333778381348e+01,
                      le:-2.9776525497436523e-01 }
            -
               depth: 6
               value: 9.1666666666666663e-01
               splits:
                  - { var:1153, quality:11., le:-2.9738080501556396e-01 }
            -
               depth: 7
               value: 1.
               splits:
                  - { var:535, quality:11., le:-4.1476888656616211e+00 }
            -
               depth: 8
               value: 1.
            -
               depth: 8
               value: 1.
               splits:
                  - { var:2332, quality:10., le:-3.9666500091552734e+00 }
            -
               depth: 9
               value: 1.
            -
               depth: 9
               value: 1.
               splits:
                  - { var:1493, quality:9., le:-2.1208932995796204e-01 }
            -
               depth: 10
               value: 1.
            -
               depth: 10
               value: 1.
               splits:
                  - { var:1493, quality:8., le:3.3345016837120056e-01 }
            -
               depth: 11
               value: 1.
            -
               depth: 11
               value: 1.
               splits:
                  - { var:48, quality:6., le:-3.2018818855285645e+00 }
            -
               depth: 12
               value: 1.
            -
               depth: 12
               value: 1.
               splits:
                  - { var:542, quality:4., le:1.7342916727066040e+00 }
            -
               depth: 13
               value: 1.
            -
               depth: 13
               value: 1.
            -
               depth: 7
               value: 0.
            -
               depth: 6
               value: 2.0000000000000001e-01
               splits:
                  - { var:1974, quality:1., le:-2.4306461811065674e+00 }
            -
               depth: 7
               value: 1.
            -
               depth: 7
               value: 0.
            -
               depth: 2
               value: 8.0054894784995423e-01
               splits:
                  - { var:2282, quality:7.0554248046875000e+02,
                      le:-6.1122459173202515e-01 }
            -
               depth: 3
               value: 9.1379310344827591e-01
               splits:
                  - { var:295, quality:2.4468641662597656e+02,
                      le:6.1999082565307617e+00 }
            -
               depth: 4
               value: 9.2334494773519160e-01
               splits:
                  - { var:1047, quality:2.4841755676269531e+02,
                      le:2.6214079856872559e+00 }
            -
               depth: 5
               value: 9.4265232974910396e-01
               splits:
                  - { var:2222, quality:2.5137037658691406e+02,
                      le:3.1834106445312500e+00 }
            -
               depth: 6
               value: 9.6296296296296291e-01
               splits:
                  - { var:527, quality:2.5147286987304688e+02,
                      le:-1.5345559120178223e+00 }
            -
               depth: 7
               value: 6.6666666666666663e-01
               splits:
                  - { var:855, quality:8., le:-9.5458589494228363e-02 }
            -
               depth: 8
               value: 1.
               splits:
                  - { var:1487, quality:8., le:-7.5808924436569214e-01 }
            -
               depth: 9
               value: 1.
            -
               depth: 9
               value: 1.
               splits:
                  - { var:1857, quality:7., le:-2.3022685199975967e-02 }
            -
               depth: 10
               value: 1.
            -
               depth: 10
               value: 1.
               splits:
                  - { var:244, quality:4., le:2.6942472904920578e-02 }
            -
               depth: 11
               value: 1.
            -
               depth: 11
               value: 1.
               splits:
                  - { var:497, quality:3., le:1.1234043538570404e-01 }
            -
               depth: 12
               value: 1.
            -
               depth: 12
               value: 1.
            -
               depth: 8
               value: 0.
            -
               depth: 7
               value: 9.7674418604651159e-01
               splits:
                  - { var:1683, quality:2.4709727478027344e+02,
                      le:5.2739701271057129e+00 }
            -
               depth: 8
               value: 9.8054474708171202e-01
               splits:
                  - { var:986, quality:2.4765931701660156e+02,
                      le:-2.0623230934143066e+00 }
            -
               depth: 9
               value: 7.8571428571428570e-01
               splits:
                  - { var:1855, quality:11., le:-4.3766477704048157e-01 }
            -
               depth: 10
               value: 0.
            -
               depth: 10
               value: 1.
               splits:
                  - { var:1840, quality:11., le:-7.2630758285522461e+00 }
            -
               depth: 11
               value: 1.
            -
               depth: 11
               value: 1.
               splits:
                  - { var:2345, quality:10., le:-1.1546409130096436e+00 }
            -
               depth: 12
               value: 1.
            -
               depth: 12
               value: 1.
               splits:
                  - { var:92, quality:9., le:-4.8590011596679688e+00 }
            -
               depth: 13
               value: 1.
            -
               depth: 13
               value: 1.
               splits:
                  - { var:1660, quality:8., le:-1.7031102180480957e+00 }
            -
               depth: 14
               value: 1.
            -
               depth: 14
               value: 1.
               splits:
                  - { var:1838, quality:7., le:-3.7881407141685486e-01 }
            -
               depth: 15
               value: 1.
            -
               depth: 15
               value: 1.
               splits:
                  - { var:2373, quality:6., le:5.6362545490264893e-01 }
            -
               depth: 16
               value: 1.
            -
               depth: 16
               value: 1.
               splits:
                  - { var:62, quality:3., le:-1.5500041842460632e-01 }
            -
               depth: 17
               value: 1.
            -
               depth: 17
               value: 1.
            -
               depth: 9
               value: 9.9176954732510292e-01
               splits:
                  - { var:1654, quality:2.3917088317871094e+02,
                      le:-2.6379628181457520e+00 }
            -
               depth: 10
               value: 8.3333333333333337e-01
               splits:
                  - { var:97, quality:5., le:-3.1628966331481934e-02 }
            -
               depth: 11
               value: 1.
               splits:
                  - { var:2481, quality:5., le:3.5628590732812881e-02 }
            -
               depth: 12
               value: 1.
            -
               depth: 12
               value: 1.
               splits:
                  - { var:1224, quality:3., le:-4.7675454616546631e-01 }
            -
               depth: 13
               value: 1.
            -
               depth: 13
               value: 1.
               splits:
                  - { var:2192, quality:2., le:1.6192071437835693e+00 }
            -
               depth: 14
               value: 1.
            -
               depth: 14
               value: 1.
            -
               depth: 11
               value: 0.
            -
               depth: 10
               value: 9.9578059071729963e-01
               splits:
                  - { var:2080, quality:2.3505882263183594e+02,
                      le:1.6509022712707520e+00 }
            -
               depth: 11
               value: 1.
               splits:
                  - { var:2162, quality:220., le:-1.1542509078979492e+01 }
            -
               depth: 12
               value: 1.
            -
               depth: 12
               value: 1.
               splits:
                  - { var:2162, quality:219., le:-1.0692436218261719e+01 }
            -
               depth: 13
               value: 1.
            -
               depth: 13
               value: 1.
               splits:
                  - { var:1736, quality:217., le:-3.1440162658691406e+00 }
            -
               depth: 14
               value: 1.
            -
               depth: 14
               value: 1.
               splits:
                  - { var:1648, quality:215., le:-4.8513889312744141e+00 }
            -
               depth: 15
               value: 1.
            -
               depth: 15
               value: 1.
               splits:
                  - { var:1155, quality:214., le:-8.2829046249389648e+00 }
            -
               depth: 16
               value: 1.
            -
               depth: 16
               value: 1.
               splits:
                  - { var:799, quality:213., le:-5.0591340065002441e+00 }
            -
               depth: 17
               value: 1.
            -
               depth: 17
               value: 1.
               splits:
                  - { var:1802, quality:210., le:-8.5537595748901367e+00 }
            -
               depth: 18
               value: 1.
            -
               depth: 18
               value: 1.
               splits:
                  - { var:1740, quality:209., le:-2.8534955978393555e+00 }
            -
               depth: 19
               value: 1.
            -
               depth: 19
               value: 1.
               splits:
                  - { var:535, quality:208., le:-3.7335567474365234e+00 }
            -
               depth: 20
               value: 1.
            -
               depth: 20
               value: 1.
               splits:
                  - { var:535, quality:207., le:-3.1715199947357178e+00 }
            -
               depth: 21
               value: 1.
            -
               depth: 21
               value: 1.
               splits:
                  - { var:1689, quality:206., le:-2.4124560356140137e+00 }
            -
               depth: 22
               value: 1.
            -
               depth: 22
               value: 1.
               splits:
                  - { var:1960, quality:203., le:-3.6995916366577148e+00 }
            -
               depth: 23
               value: 1.
            -
               depth: 23
               value: 1.
               splits:
                  - { var:484, quality:199., le:-4.0055456161499023e+00 }
            -
               depth: 24
               value: 1.
            -
               depth: 24
               value: 1.
               splits:
                  - { var:2237, quality:198., le:-2.1027970314025879e+00 }
            -
               depth: 25
               value: 1.
            -
               depth: 25
               value: 1.
            -
               depth: 11
               value: 9.4117647058823528e-01
               splits:
                  - { var:1929, quality:16., le:2.2038712501525879e+00 }
            -
               depth: 12
               value: 1.
               splits:
                  - { var:1646, quality:16., le:-5.7879257202148438e-01 }
            -
               depth: 13
               value: 1.
            -
               depth: 13
               value: 1.
               splits:
                  - { var:832, quality:15., le:-1.5674312114715576e+00 }
            -
               depth: 14
               value: 1.
            -
               depth: 14
               value: 1.
               splits:
                  - { var:2452, quality:12., le:-2.3738434314727783e+00 }
            -
               depth: 15
               value: 1.
            -
               depth: 15
               value: 1.
               splits:
                  - { var:807, quality:11., le:-1.5930536985397339e+00 }
            -
               depth: 16
               value: 1.
            -
               depth: 16
               value: 1.
               splits:
                  - { var:1533, quality:9., le:-7.1670603752136230e-01 }
            -
               depth: 17
               value: 1.
            -
               depth: 17
               value: 1.
               splits:
                  - { var:818, quality:8., le:-3.9372653961181641e+00 }
            -
               depth: 18
               value: 1.
            -
               depth: 18
               value: 1.
               splits:
                  - { var:333, quality:4., le:1.3917844295501709e+00 }
            -
               depth: 19
               value: 1.
            -
               depth: 19
               value: 1.
            -
               depth: 12
               value: 0.
            -
               depth: 8
               value: 0.
            -
               depth: 6
               value: 3.3333333333333331e-01
               splits:
                  - { var:1954, quality:3., le:1.0572416782379150e+00 }
            -
               depth: 7
               value: 1.
               splits:
                  - { var:2245, quality:3., le:1.4439173936843872e+00 }
            -
               depth: 8
               value: 1.
            -
               depth: 8
               value: 1.
            -
               depth: 7
               value: 0.
            -
               depth: 5
               value: 2.5000000000000000e-01
               splits:
                  - { var:1775, quality:2., le:-2.2746514528989792e-02 }
            -
               depth: 6
               value: 1.
               splits:
                  - { var:2221, quality:2., le:-3.5282340049743652e+00 }
            -
               depth: 7
               value: 1.
            -
               depth: 7
               value: 1.
            -
               depth: 6
               value: 0.
            -
               depth: 4
               value: 0.
            -
               depth: 3
               value: 7.5965130759651311e-01
               splits:
                  - { var:2466, quality:4.6880667114257813e+02,
                      le:-1.2436838150024414e+00 }
            -
               depth: 4
               value: 1.
               splits:
                  - { var:2473, quality:84., le:-8.4066486358642578e+00 }
            -
               depth: 5
               value: 1.
            -
               depth: 5
               value: 1.
               splits:
                  - { var:1056, quality:83., le:-5.6995763778686523e+00 }
            -
               depth: 6
               value: 1.
            -
               depth: 6
               value: 1.
               splits:
                  - { var:2327, quality:81., le:-7.4201803207397461e+00 }
            -
               depth: 7
               value: 1.
            -
               depth: 7
               value: 1.
               splits:
                  - { var:1872, quality:79., le:-1.1389991760253906e+01 }
            -
               depth: 8
               value: 1.
            -
               depth: 8
               value: 1.
               splits:
                  - { var:718, quality:78., le:-3.8746218681335449e+00 }
            -
               depth: 9
               value: 1.
            -
               depth: 9
               value: 1.
               splits:
                  - { var:2079, quality:77., le:-3.0850682258605957e+00 }
            -
               depth: 10
               value: 1.
            -
               depth: 10
               value: 1.
               splits:
                  - { var:900, quality:76., le:-6.2781229019165039e+00 }
            -
               depth: 11
               value: 1.
            -
               depth: 11
               value: 1.
               splits:
                  - { var:449, quality:75., le:-3.0805311203002930e+00 }
            -
               depth: 12
               value: 1.
            -
               depth: 12
               value: 1.
               splits:
                  - { var:449, quality:74., le:-2.1887183189392090e+00 }
            -
               depth: 13
               value: 1.
            -
               depth: 13
               value: 1.
               splits:
                  - { var:2506, quality:73., le:-2.2815778255462646e+00 }
            -
               depth: 14
               value: 1.
            -
               depth: 14
               value: 1.
               splits:
                  - { var:1895, quality:70., le:-2.7226338386535645e+00 }
            -
               depth: 15
               value: 1.
            -
               depth: 15
               value: 1.
               splits:
                  - { var:73, quality:68., le:-4.5079936981201172e+00 }
            -
               depth: 16
               value: 1.
            -
               depth: 16
               value: 1.
               splits:
                  - { var:1895, quality:67., le:-1.9940215349197388e+00 }
            -
               depth: 17
               value: 1.
            -
               depth: 17
               value: 1.
               splits:
                  - { var:1449, quality:66., le:-1.9021830558776855e+00 }
            -
               depth: 18
               value: 1.
            -
               depth: 18
               value: 1.
               splits:
                  - { var:564, quality:65., le:-7.9437513351440430e+00 }
            -
               depth: 19
               value: 1.
            -
               depth: 19
               value: 1.
               splits:
                  - { var:2310, quality:64., le:-4.6744847297668457e+00 }
            -
               depth: 20
               value: 1.
            -
               depth: 20
               value: 1.
               splits:
                  - { var:385, quality:62., le:-4.6336145401000977e+00 }
            -
               depth: 21
               value: 1.
            -
               depth: 21
               value: 1.
               splits:
                  - { var:919, quality:61., le:-5.0159296989440918e+00 }
            -
               depth: 22
               value: 1.
            -
               depth: 22
               value: 1.
               splits:
                  - { var:919, quality:60., le:-3.4853458404541016e+00 }
            -
               depth: 23
               value: 1.
            -
               depth: 23
               value: 1.
               splits:
                  - { var:926, quality:59., le:-3.3866386413574219e+00 }
            -
               depth: 24
               value: 1.
            -
               depth: 24
               value: 1.
               splits:
                  - { var:683, quality:55., le:-2.0176739692687988e+00 }
            -
               depth: 25
               value: 1.
            -
               depth: 25
               value: 1.
            -
               depth: 4
               value: 7.3157162726008340e-01
               splits:
                  - { var:1777, quality:3.9020632934570313e+02,
                      le:1.2078046798706055e+00 }
            -
               depth: 5
               value: 6.9593495934959348e-01
               splits:
                  - { var:348, quality:3.0338180541992188e+02,
                      le:-9.8399722576141357e-01 }
            -
               depth: 6
               value: 9.0476190476190477e-01
               splits:
                  - { var:1961, quality:8.7621360778808594e+01,
                      le:2.6860938072204590e+00 }
            -
               depth: 7
               value: 9.2233009708737868e-01
               splits:
                  - { var:204, quality:8.8480392456054688e+01,
                      le:5.3769259452819824e+00 }
            -
               depth: 8
               value: 9.3137254901960786e-01
               splits:
                  - { var:640, quality:8.9356437683105469e+01,
                      le:-2.9375514984130859e+00 }
            -
               depth: 9
               value: 0.
            -
               depth: 9
               value: 9.4059405940594054e-01
               splits:
                  - { var:1823, quality:9.0250000000000000e+01,
                      le:2.8015048503875732e+00 }
            -
               depth: 10
               value: 9.4999999999999996e-01
               splits:
                  - { var:2230, quality:9.1161613464355469e+01,
                      le:3.3529715538024902e+00 }
            -
               depth: 11
               value: 9.5959595959595956e-01
               splits:
                  - { var:1450, quality:9.1709678649902344e+01,
                      le:2.2771058082580566e+00 }
            -
               depth: 12
               value: 9.7849462365591400e-01
               splits:
                  - { var:655, quality:9.0010871887207031e+01,
                      le:3.5972003936767578e+00 }
            -
               depth: 13
               value: 9.8913043478260865e-01
               splits:
                  - { var:1848, quality:9.0333335876464844e+01,
                      le:-2.5074977874755859e+00 }
            -
               depth: 14
               value: 6.6666666666666663e-01
               splits:
                  - { var:1325, quality:2., le:5.3554636240005493e-01 }
            -
               depth: 15
               value: 1.
               splits:
                  - { var:1277, quality:2., le:1.0498774051666260e+00 }
            -
               depth: 16
               value: 1.
            -
               depth: 16
               value: 1.
            -
               depth: 15
               value: 0.
            -
               depth: 14
               value: 1.
               splits:
                  - { var:1909, quality:89., le:-6.2007970809936523e+00 }
            -
               depth: 15
               value: 1.
            -
               depth: 15
               value: 1.
               splits:
                  - { var:1572, quality:88., le:-2.6758365631103516e+00 }
            -
               depth: 16
               value: 1.
            -
               depth: 16
               value: 1.
               splits:
                  - { var:593, quality:87., le:-9.5161218643188477e+00 }
            -
               depth: 17
               value: 1.
            -
               depth: 17
               value: 1.
               splits:
                  - { var:622, quality:83., le:-6.4561228752136230e+00 }
            -
               depth: 18
               value: 1.
            -
               depth: 18
               value: 1.
               splits:
                  - { var:1986, quality:81., le:-6.1989870071411133e+00 }
            -
               depth: 19
               value: 1.
            -
               depth: 19
               value: 1.
               splits:
                  - { var:1545, quality:80., le:-5.2515239715576172e+00 }
            -
               depth: 20
               value: 1.
            -
               depth: 20
               value: 1.
               splits:
                  - { var:1024, quality:79., le:-3.8026964664459229e+00 }
            -
               depth: 21
               value: 1.
            -
               depth: 21
               value: 1.
               splits:
                  - { var:2453, quality:77., le:-5.7476644515991211e+00 }
            -
               depth: 22
               value: 1.
            -
               depth: 22
               value: 1.
               splits:
                  - { var:2068, quality:76., le:-5.5092263221740723e+00 }
            -
               depth: 23
               value: 1.
            -
               depth: 23
               value: 1.
               splits:
                  - { var:747, quality:73., le:-3.9377169609069824e+00 }
            -
               depth: 24
               value: 1.
            -
               depth: 24
               value: 1.
               splits:
                  - { var:1686, quality:71., le:-5.7148628234863281e+00 }
            -
               depth: 25
               value: 1.
            -
               depth: 25
               value: 1.
            -
               depth: 13
               value: 0.
            -
               depth: 12
               value: 6.6666666666666663e-01
               splits:
                  - { var:1796, quality:4., le:-6.0812268406152725e-02 }
            -
               depth: 13
               value: 0.
            -
               depth: 13
               value: 1.
               splits:
                  - { var:2582, quality:4., le:2.4926722049713135e-02 }
            -
               depth: 14
               value: 1.
            -
               depth: 14
               value: 1.
            -
               depth: 11
               value: 0.
            -
               depth: 10
               value: 0.
            -
               depth: 8
               value: 0.
            -
               depth: 7
               value: 0.
            -
               depth: 6
               value: 6.5294117647058825e-01
               splits:
                  - { var:245, quality:2.2382530212402344e+02,
                      le:2.7713626623153687e-01 }
            -
               depth: 7
               value: 7.3493975903614461e-01
               splits:
                  - { var:153, quality:1.8301541137695313e+02,
                      le:-5.7311898469924927e-01 }
            -
               depth: 8
               value: 5.6842105263157894e-01
               splits:
                  - { var:2316, quality:3.7657054901123047e+01,
                      le:-3.7933483719825745e-02 }
            -
               depth: 9
               value: 8.4782608695652173e-01
               splits:
                  - { var:539, quality:3.6214286804199219e+01,
                      le:1.7160381078720093e+00 }
            -
               depth: 10
               value: 9.2857142857142860e-01
               splits:
                  - { var:356, quality:3.7500000000000000e+01,
                      le:-8.2714867591857910e-01 }
            -
               depth: 11
               value: 5.0000000000000000e-01
               splits:
                  - { var:203, quality:3., le:1.9645467400550842e-02 }
            -
               depth: 12
               value: 1.
               splits:
                  - { var:1034, quality:3., le:-4.1942753791809082e+00 }
            -
               depth: 13
               value: 1.
            -
               depth: 13
               value: 1.
               splits:
                  - { var:1034, quality:2., le:-9.5630800724029541e-01 }
            -
               depth: 14
               value: 1.
            -
               depth: 14
               value: 1.
            -
               depth: 12
               value: 0.
            -
               depth: 11
               value: 1.
               splits:
                  - { var:129, quality:36., le:-4.3181457519531250e+00 }
            -
               depth: 12
               value: 1.
            -
               depth: 12
               value: 1.
               splits:
                  - { var:2048, quality:34., le:-2.3743338584899902e+00 }
            -
               depth: 13
               value: 1.
            -
               depth: 13
               value: 1.
               splits:
                  - { var:1888, quality:33., le:-2.2047998905181885e+00 }
            -
               depth: 14
               value: 1.
            -
               depth: 14
               value: 1.
               splits:
                  - { var:225, quality:31., le:-5.7194805145263672e+00 }
            -
               depth: 15
               value: 1.
            -
               depth: 15
               value: 1.
               splits:
                  - { var:72, quality:29., le:-1.0403335094451904e+00 }
            -
               depth: 16
               value: 1.
               splits:
                  - { var:2485, quality:5., le:-2.4905517697334290e-01 }
            -
               depth: 17
               value: 1.
            -
               depth: 17
               value: 1.
            -
               depth: 16
               value: 1.
               splits:
                  - { var:1871, quality:24., le:-3.2076289653778076e+00 }
            -
               depth: 17
               value: 1.
            -
               depth: 17
               value: 1.
               splits:
                  - { var:1750, quality:23., le:-5.5784416198730469e-01 }
            -
               depth: 18
               value: 1.
            -
               depth: 18
               value: 1.
               splits:
                  - { var:1167, quality:20., le:-2.1567497253417969e+00 }
            -
               depth: 19
               value: 1.
            -
               depth: 19
               value: 1.
               splits:
                  - { var:791, quality:18., le:-2.0786924362182617e+00 }
            -
               depth: 20
               value: 1.
            -
               depth: 20
               value: 1.
               splits:
                  - { var:1482, quality:17., le:-2.6417624950408936e+00 }
            -
               depth: 21
               value: 1.
            -
               depth: 21
               value: 1.
               splits:
                  - { var:1099, quality:14., le:-6.6840970516204834e-01 }
            -
               depth: 22
               value: 1.
            -
               depth: 22
               value: 1.
               splits:
                  - { var:1099, quality:12., le:-2.8888016939163208e-01 }
            -
               depth: 23
               value: 1.
            -
               depth: 23
               value: 1.
               splits:
                  - { var:1990, quality:11., le:-4.1422128677368164e-01 }
            -
               depth: 24
               value: 1.
            -
               depth: 24
               value: 1.
               splits:
                  - { var:1644, quality:10., le:-8.0683153867721558e-01 }
            -
               depth: 25
               value: 1.
            -
               depth: 25
               value: 1.
            -
               depth: 10
               value: 0.
